################################################################################
# Neural network connection values (weights and biases).
################################################################################
# Col  Name       Description
################################################################################
# 1    connection Neural network connection value.
# 2    t          Connection type (a = weight, b = bias).
# 3    index      Index enumerating weights.
# 4    l_s        Starting point layer (end point layer for biases).
# 5    n_s        Starting point neuron in starting layer (end point neuron for biases).
# 6    l_e        End point layer.
# 7    n_e        End point neuron in end layer.
################################################################################
#                      1 2         3     4     5     6     7
#             connection t     index   l_s   n_s   l_e   n_e
############################################################
  3.6828581567474611E-01 a         1     0     1     1     1
 -1.8052736936600566E-01 a         2     0     1     1     2
 -1.5764604589969836E-01 a         3     0     1     1     3
  5.2179801966138206E-01 a         4     0     1     1     4
 -9.4763174496267949E-02 a         5     0     1     1     5
 -6.3086027534239708E-01 a         6     0     1     1     6
  1.1778156164472701E-01 a         7     0     1     1     7
  4.1033925900868379E-01 a         8     0     1     1     8
 -4.4408374574364503E-03 a         9     0     1     1     9
 -5.1326826658399238E-01 a        10     0     1     1    10
  5.3413201670012123E-01 a        11     0     1     1    11
 -2.3644320173652741E-01 a        12     0     1     1    12
 -7.1227108636563108E-01 a        13     0     1     1    13
  4.0648608830005095E-01 a        14     0     1     1    14
  1.2084281999654114E+00 a        15     0     1     1    15
 -4.6750283212682364E-01 a        16     0     1     1    16
 -9.2491215419158154E-02 a        17     0     1     1    17
  4.7396825562367885E-02 a        18     0     1     1    18
 -1.8367228518089487E-01 a        19     0     1     1    19
 -4.1725974033612417E-02 a        20     0     1     1    20
 -8.9442507241969582E-01 a        21     0     1     1    21
 -5.7985889776144117E-01 a        22     0     1     1    22
 -3.9400735782919150E-01 a        23     0     1     1    23
 -1.0873689648139212E-01 a        24     0     1     1    24
 -3.4091815405946041E-01 a        25     0     1     1    25
  6.4444722563342693E-01 a        26     0     2     1     1
  3.2269223004479201E-02 a        27     0     2     1     2
  1.3238824264302224E-01 a        28     0     2     1     3
  8.3381227312382830E-02 a        29     0     2     1     4
  9.6002817638807497E-02 a        30     0     2     1     5
 -2.7702003927676438E-02 a        31     0     2     1     6
  1.7129895015679225E-01 a        32     0     2     1     7
 -6.2499423401533437E-02 a        33     0     2     1     8
  2.4636368521569738E-01 a        34     0     2     1     9
 -3.7719153491747082E-01 a        35     0     2     1    10
 -3.0840097466619171E-02 a        36     0     2     1    11
 -1.1164598073940660E-01 a        37     0     2     1    12
 -2.7904983736851269E-01 a        38     0     2     1    13
 -2.4648731960572573E-01 a        39     0     2     1    14
  7.1516279370732475E-02 a        40     0     2     1    15
 -8.5115459254576809E-02 a        41     0     2     1    16
  1.3305756592639562E-01 a        42     0     2     1    17
 -3.5210965130108095E-02 a        43     0     2     1    18
 -1.2662988683582102E-01 a        44     0     2     1    19
 -2.1185676664896771E-01 a        45     0     2     1    20
  5.4407267851526588E-02 a        46     0     2     1    21
 -2.2979820433398979E-01 a        47     0     2     1    22
 -1.8264563848455745E-01 a        48     0     2     1    23
 -9.3650152473474219E-02 a        49     0     2     1    24
 -1.1624039891510964E-01 a        50     0     2     1    25
  3.5115296620354797E-01 a        51     0     3     1     1
  3.1090414201591626E-01 a        52     0     3     1     2
 -5.0121796766110803E-02 a        53     0     3     1     3
 -7.3331022821466862E-01 a        54     0     3     1     4
 -2.3411407609274382E-01 a        55     0     3     1     5
  4.5171944828778615E-01 a        56     0     3     1     6
 -1.8188903730886816E-01 a        57     0     3     1     7
 -3.4267073283230637E-01 a        58     0     3     1     8
  2.4675314359611142E-01 a        59     0     3     1     9
  8.0401172662584897E-02 a        60     0     3     1    10
 -3.5987582825859864E-02 a        61     0     3     1    11
  3.7014433769090993E-01 a        62     0     3     1    12
  1.1592308331881368E-01 a        63     0     3     1    13
 -4.1950537730977810E-01 a        64     0     3     1    14
 -2.8843917056858870E-01 a        65     0     3     1    15
  3.1002456235936149E-01 a        66     0     3     1    16
  4.7040996264138590E-01 a        67     0     3     1    17
 -2.9567704007579906E-02 a        68     0     3     1    18
  1.2022236449425969E-01 a        69     0     3     1    19
 -4.2147693314687229E-01 a        70     0     3     1    20
  6.7821670957151692E-02 a        71     0     3     1    21
  3.0308484039204547E-01 a        72     0     3     1    22
  3.4146930129487957E-01 a        73     0     3     1    23
 -2.8724902961296589E-01 a        74     0     3     1    24
  2.3313593284363296E-01 a        75     0     3     1    25
 -4.5357606494696412E-01 a        76     0     4     1     1
 -1.3489057432460452E-01 a        77     0     4     1     2
  2.3354378732328717E-02 a        78     0     4     1     3
  2.7640339239205497E-01 a        79     0     4     1     4
 -9.1334648406625321E-02 a        80     0     4     1     5
  3.1537171244448192E-01 a        81     0     4     1     6
 -1.2919005995253574E-01 a        82     0     4     1     7
  1.8608632409364648E-01 a        83     0     4     1     8
 -3.5954226400340239E-01 a        84     0     4     1     9
  9.4710506108240583E-02 a        85     0     4     1    10
 -4.1245002016684858E-02 a        86     0     4     1    11
  1.1208360151087170E-01 a        87     0     4     1    12
  1.4598133528239657E-01 a        88     0     4     1    13
 -9.7285008496965947E-02 a        89     0     4     1    14
  5.2465417349691990E-01 a        90     0     4     1    15
  5.5434490573219787E-02 a        91     0     4     1    16
  6.1373294943786551E-02 a        92     0     4     1    17
  2.7498469818676857E-01 a        93     0     4     1    18
  1.8818155805286210E-01 a        94     0     4     1    19
 -1.3808367071272645E-01 a        95     0     4     1    20
 -6.6191786412677306E-03 a        96     0     4     1    21
 -3.0638867990785473E-01 a        97     0     4     1    22
 -4.5760386699974986E-01 a        98     0     4     1    23
  2.8673869610157615E-01 a        99     0     4     1    24
 -1.1045794168203059E-01 a       100     0     4     1    25
  9.4385635732708431E-02 a       101     0     5     1     1
  3.9299544323118563E-01 a       102     0     5     1     2
 -2.0676776402704022E-01 a       103     0     5     1     3
  3.2562145508752949E-01 a       104     0     5     1     4
  7.3785111829446109E-02 a       105     0     5     1     5
 -2.8825100640329795E-02 a       106     0     5     1     6
 -1.0540905258773486E-01 a       107     0     5     1     7
  6.5728943960849079E-02 a       108     0     5     1     8
  2.1922746006667704E-01 a       109     0     5     1     9
  2.8801271840701914E-01 a       110     0     5     1    10
  4.4728975230223676E-03 a       111     0     5     1    11
 -8.5059012333105699E-02 a       112     0     5     1    12
  6.0041541605642845E-02 a       113     0     5     1    13
  4.1184354135372953E-01 a       114     0     5     1    14
  4.1528131571698901E-01 a       115     0     5     1    15
  1.8905848000217193E-01 a       116     0     5     1    16
  7.5237238548458638E-02 a       117     0     5     1    17
 -2.5790570382355416E-01 a       118     0     5     1    18
  7.2766041336238277E-02 a       119     0     5     1    19
  4.3671515654158471E-02 a       120     0     5     1    20
 -1.6427932666781400E-01 a       121     0     5     1    21
  1.6750838758226894E-01 a       122     0     5     1    22
 -2.8243121642426872E-01 a       123     0     5     1    23
  8.1862367513707096E-02 a       124     0     5     1    24
 -1.9660034803193330E-01 a       125     0     5     1    25
  2.8160731693304044E-02 a       126     0     6     1     1
  8.6577202824199256E-02 a       127     0     6     1     2
 -2.7272903666106613E-01 a       128     0     6     1     3
  1.4143988924573794E-01 a       129     0     6     1     4
 -1.8608885784118642E-01 a       130     0     6     1     5
  1.9400121801482614E-01 a       131     0     6     1     6
 -3.1038609447049503E-01 a       132     0     6     1     7
  3.6119486198821332E-01 a       133     0     6     1     8
  1.5234049948245039E-02 a       134     0     6     1     9
 -7.0325771098396467E-02 a       135     0     6     1    10
  4.1351494996587684E-01 a       136     0     6     1    11
 -1.6540116176359101E-01 a       137     0     6     1    12
  4.3430819174867596E-01 a       138     0     6     1    13
  1.8620141174859656E-01 a       139     0     6     1    14
 -6.3982657407698956E-02 a       140     0     6     1    15
  3.2876322056373192E-01 a       141     0     6     1    16
 -9.6568599841836952E-02 a       142     0     6     1    17
 -2.8720626015322182E-01 a       143     0     6     1    18
 -2.1789719321488529E-01 a       144     0     6     1    19
  1.7495377600738748E-01 a       145     0     6     1    20
  8.0699427045603053E-02 a       146     0     6     1    21
  3.8677959000748530E-01 a       147     0     6     1    22
  1.1039910375165569E-01 a       148     0     6     1    23
 -1.4166829492464048E-01 a       149     0     6     1    24
 -3.9291647053680173E-01 a       150     0     6     1    25
  4.1860151336939555E-01 a       151     0     7     1     1
 -5.3877036963080756E-04 a       152     0     7     1     2
  6.5244003909104981E-02 a       153     0     7     1     3
 -1.2003684471566416E-01 a       154     0     7     1     4
 -2.1504131380959582E-01 a       155     0     7     1     5
  9.7578993233639208E-02 a       156     0     7     1     6
  2.9584936189479538E-01 a       157     0     7     1     7
 -2.1211688469949384E-02 a       158     0     7     1     8
  1.4650527674295880E-01 a       159     0     7     1     9
  1.4021271605785651E-01 a       160     0     7     1    10
 -3.7935122444643454E-01 a       161     0     7     1    11
  2.1190288108153943E-01 a       162     0     7     1    12
  5.3680958472505411E-02 a       163     0     7     1    13
  1.8951459714055180E-01 a       164     0     7     1    14
 -3.0554527609571055E-02 a       165     0     7     1    15
 -1.4135304260142445E-01 a       166     0     7     1    16
 -2.8628395698193326E-01 a       167     0     7     1    17
  1.2903798945787226E-02 a       168     0     7     1    18
 -1.6744008355910552E-02 a       169     0     7     1    19
 -6.1472915443989258E-02 a       170     0     7     1    20
  4.0613019128754002E-01 a       171     0     7     1    21
  3.4581951353604828E-01 a       172     0     7     1    22
 -7.7743491915226337E-02 a       173     0     7     1    23
 -1.4094818646474783E-01 a       174     0     7     1    24
  8.1728890551106700E-02 a       175     0     7     1    25
 -2.7264868565463002E-01 a       176     0     8     1     1
 -1.3188190580730588E-01 a       177     0     8     1     2
  5.4984055214853410E-02 a       178     0     8     1     3
 -2.2744039982505090E-01 a       179     0     8     1     4
  7.3854229428752069E-02 a       180     0     8     1     5
 -2.6257118169518906E-01 a       181     0     8     1     6
 -1.8066905016972579E-01 a       182     0     8     1     7
 -2.3091574247747781E-01 a       183     0     8     1     8
 -1.7867639853951420E-01 a       184     0     8     1     9
 -3.9720907693371044E-01 a       185     0     8     1    10
  1.3426962554923277E-01 a       186     0     8     1    11
 -8.1870344960844749E-02 a       187     0     8     1    12
 -1.1251535774548298E-01 a       188     0     8     1    13
 -3.2026480843509458E-01 a       189     0     8     1    14
 -2.0443104083002822E-01 a       190     0     8     1    15
 -2.5456185596823250E-02 a       191     0     8     1    16
  1.1070602455351673E-01 a       192     0     8     1    17
  1.8957677757778409E-02 a       193     0     8     1    18
 -1.3517107758563712E-01 a       194     0     8     1    19
 -3.7469172438461401E-02 a       195     0     8     1    20
 -3.2122164229270600E-01 a       196     0     8     1    21
 -3.7034535884792963E-01 a       197     0     8     1    22
  2.8076860380833374E-01 a       198     0     8     1    23
 -1.9169524783254847E-02 a       199     0     8     1    24
  1.2218541886225179E-01 a       200     0     8     1    25
 -4.1093305373065762E-02 a       201     0     9     1     1
  5.6799643956614715E-03 a       202     0     9     1     2
 -1.2456968990101061E-03 a       203     0     9     1     3
 -2.5052869958654189E-01 a       204     0     9     1     4
 -1.0773498514462311E-01 a       205     0     9     1     5
 -1.3816300620624763E-01 a       206     0     9     1     6
  1.6732290508053582E-01 a       207     0     9     1     7
 -2.1683663637712325E-01 a       208     0     9     1     8
 -3.5851520906789669E-02 a       209     0     9     1     9
 -5.9313231098804910E-02 a       210     0     9     1    10
 -1.4551547707907128E-01 a       211     0     9     1    11
  1.7070463037344061E-01 a       212     0     9     1    12
 -2.6528538954256908E-01 a       213     0     9     1    13
 -2.5910151240700996E-01 a       214     0     9     1    14
  1.2872722008188503E-01 a       215     0     9     1    15
 -1.3362158441862387E-01 a       216     0     9     1    16
  1.9685855405451405E-01 a       217     0     9     1    17
  2.3384318099039109E-01 a       218     0     9     1    18
 -9.1416171370295701E-02 a       219     0     9     1    19
 -3.3643007340351849E-01 a       220     0     9     1    20
  2.0393631410269980E-01 a       221     0     9     1    21
 -8.6966663610070952E-02 a       222     0     9     1    22
 -2.1401847031566429E-01 a       223     0     9     1    23
 -8.2026374444736067E-02 a       224     0     9     1    24
  6.7938688535856731E-02 a       225     0     9     1    25
  8.4747098390196418E-01 a       226     0    10     1     1
  2.6204587449973726E-01 a       227     0    10     1     2
 -4.0416570809215158E-01 a       228     0    10     1     3
 -9.5832869104591697E-02 a       229     0    10     1     4
  3.5781568370544536E-01 a       230     0    10     1     5
 -9.7620442275637050E-03 a       231     0    10     1     6
 -5.9446838913274000E-02 a       232     0    10     1     7
 -2.4077411089551243E-01 a       233     0    10     1     8
 -6.1769916300191914E-02 a       234     0    10     1     9
  3.2823755244116254E-01 a       235     0    10     1    10
 -7.3284272302747233E-01 a       236     0    10     1    11
 -8.3335771275241929E-02 a       237     0    10     1    12
 -3.9859565114501422E-01 a       238     0    10     1    13
 -2.3028507693802766E-01 a       239     0    10     1    14
 -2.1689709092933387E-01 a       240     0    10     1    15
  7.7440423931983859E-02 a       241     0    10     1    16
  4.7705292595045840E-01 a       242     0    10     1    17
 -6.7445492925074957E-02 a       243     0    10     1    18
  1.2906853918512950E-01 a       244     0    10     1    19
 -1.5346298787912613E-01 a       245     0    10     1    20
  6.0581300944015393E-01 a       246     0    10     1    21
  6.2689172404309379E-01 a       247     0    10     1    22
  7.7133590258898377E-01 a       248     0    10     1    23
  6.4213081197970576E-02 a       249     0    10     1    24
  3.1614586270216988E-01 a       250     0    10     1    25
 -1.1816986353341422E-01 a       251     0    11     1     1
  3.2895326317249579E-01 a       252     0    11     1     2
 -1.3243593166633222E-01 a       253     0    11     1     3
  2.5055976523115114E-01 a       254     0    11     1     4
 -1.0513905002136607E-01 a       255     0    11     1     5
  1.2062200343200206E-02 a       256     0    11     1     6
 -1.1535468506962847E-01 a       257     0    11     1     7
 -1.8278009378571469E-01 a       258     0    11     1     8
  1.3066703427696827E-01 a       259     0    11     1     9
  3.5621127699860916E-01 a       260     0    11     1    10
 -9.2393593143076450E-02 a       261     0    11     1    11
  5.1383065705098863E-01 a       262     0    11     1    12
 -1.8414154657629907E-02 a       263     0    11     1    13
  5.4835409100165260E-02 a       264     0    11     1    14
  2.9669821160976706E-01 a       265     0    11     1    15
  1.9940222030529667E-01 a       266     0    11     1    16
  3.1678753193484016E-01 a       267     0    11     1    17
 -2.2088387642434557E-01 a       268     0    11     1    18
 -1.0846016761701845E-01 a       269     0    11     1    19
  1.7029857732764986E-01 a       270     0    11     1    20
  3.5671389202709447E-01 a       271     0    11     1    21
 -3.2134203925598409E-01 a       272     0    11     1    22
 -2.3834399559156580E-01 a       273     0    11     1    23
  2.9360639839510183E-01 a       274     0    11     1    24
  1.5208269688138773E-01 a       275     0    11     1    25
  6.8283028497472031E-02 a       276     0    12     1     1
 -1.6617684227694590E-01 a       277     0    12     1     2
  3.3759083386484701E-01 a       278     0    12     1     3
 -3.5318529327941778E-01 a       279     0    12     1     4
  2.5004101859899908E-01 a       280     0    12     1     5
  6.0806194062269503E-01 a       281     0    12     1     6
  1.6860754673320541E-01 a       282     0    12     1     7
 -2.7633448886006207E-01 a       283     0    12     1     8
 -1.7041079149893001E-02 a       284     0    12     1     9
  1.1130291367990541E-01 a       285     0    12     1    10
 -3.3951324285473627E-01 a       286     0    12     1    11
  3.5872100265795970E-01 a       287     0    12     1    12
 -1.8628506066727610E-01 a       288     0    12     1    13
 -7.7934327629058747E-02 a       289     0    12     1    14
  3.5810968939505389E-02 a       290     0    12     1    15
  4.5030080426302355E-01 a       291     0    12     1    16
  2.1027427589037501E-01 a       292     0    12     1    17
  5.2259512856733685E-02 a       293     0    12     1    18
 -2.2059218169918593E-01 a       294     0    12     1    19
  1.3042595176461710E-01 a       295     0    12     1    20
  1.9719260950873066E-01 a       296     0    12     1    21
  4.2703295336201340E-02 a       297     0    12     1    22
  1.1513482054720127E-01 a       298     0    12     1    23
  2.2562469439940509E-02 a       299     0    12     1    24
 -7.7603760403041431E-03 a       300     0    12     1    25
 -3.4058025968448369E-01 a       301     0    13     1     1
  2.4004965822361921E-01 a       302     0    13     1     2
  4.6098953146247253E-04 a       303     0    13     1     3
  1.3535386927215770E-01 a       304     0    13     1     4
  2.2656546252004253E-01 a       305     0    13     1     5
 -1.3308303535039293E-01 a       306     0    13     1     6
  1.2545408685468265E-01 a       307     0    13     1     7
 -3.0438027188721791E-02 a       308     0    13     1     8
 -3.5248526568723904E-01 a       309     0    13     1     9
  7.5134792458946442E-02 a       310     0    13     1    10
  1.2291824297653470E-01 a       311     0    13     1    11
  3.8229933079202955E-01 a       312     0    13     1    12
 -2.2380345538545032E-01 a       313     0    13     1    13
 -1.0488384772078160E-01 a       314     0    13     1    14
  3.8761151125050419E-01 a       315     0    13     1    15
 -1.3498376360805056E-01 a       316     0    13     1    16
  1.3542097962274376E-02 a       317     0    13     1    17
 -2.0113899476631630E-01 a       318     0    13     1    18
 -9.5855505019752305E-02 a       319     0    13     1    19
  2.8172336507183299E-01 a       320     0    13     1    20
  1.9003551468730612E-01 a       321     0    13     1    21
 -2.5956855683607949E-01 a       322     0    13     1    22
  3.2100179384513511E-02 a       323     0    13     1    23
  1.8592888606038688E-01 a       324     0    13     1    24
 -1.6585538564256619E-01 a       325     0    13     1    25
 -4.9275452317890339E-01 a       326     0    14     1     1
  1.3469933556469371E-01 a       327     0    14     1     2
  7.2868952758394140E-02 a       328     0    14     1     3
  7.8646173981743964E-02 a       329     0    14     1     4
  5.1483305001046961E-02 a       330     0    14     1     5
 -3.5852449882935483E-01 a       331     0    14     1     6
  2.6718605518593797E-01 a       332     0    14     1     7
  5.6921826015591370E-01 a       333     0    14     1     8
 -2.9653252112001138E-01 a       334     0    14     1     9
 -3.0992328398018737E-01 a       335     0    14     1    10
  2.7998190488112401E-01 a       336     0    14     1    11
  2.9651750420363410E-01 a       337     0    14     1    12
  1.6002990693530270E-01 a       338     0    14     1    13
 -3.2866071276061931E-01 a       339     0    14     1    14
  6.6754331832805883E-03 a       340     0    14     1    15
 -4.3679584846290276E-01 a       341     0    14     1    16
 -5.1206656106842652E-01 a       342     0    14     1    17
  4.7375052124335204E-01 a       343     0    14     1    18
 -3.8755771683924944E-01 a       344     0    14     1    19
  3.9902568229283325E-01 a       345     0    14     1    20
  3.2669980936196341E-01 a       346     0    14     1    21
 -4.1981381958585451E-01 a       347     0    14     1    22
 -3.4875015790623143E-01 a       348     0    14     1    23
  1.8019152746895944E-01 a       349     0    14     1    24
 -2.3830468757428958E-01 a       350     0    14     1    25
 -7.0897001987550168E-01 a       351     0    15     1     1
 -3.7746233016337782E-02 a       352     0    15     1     2
  8.5238332214729609E-02 a       353     0    15     1     3
  6.5093881448168889E-01 a       354     0    15     1     4
  1.2099831369483438E-01 a       355     0    15     1     5
 -6.3846148735234420E-01 a       356     0    15     1     6
  4.8118065294944740E-01 a       357     0    15     1     7
  9.6909273630694057E-02 a       358     0    15     1     8
  2.0498982396784934E-01 a       359     0    15     1     9
 -4.7176990573391037E-01 a       360     0    15     1    10
  4.2786987443536006E-01 a       361     0    15     1    11
  3.6243907854945639E-01 a       362     0    15     1    12
 -2.8555624434176152E-01 a       363     0    15     1    13
 -6.0476817165003392E-03 a       364     0    15     1    14
  4.0391089419041931E-01 a       365     0    15     1    15
 -5.8023019953114463E-01 a       366     0    15     1    16
 -2.4565545254427174E-01 a       367     0    15     1    17
  3.2254548929230270E-01 a       368     0    15     1    18
 -1.6497012626003255E-01 a       369     0    15     1    19
  5.9967026564458803E-01 a       370     0    15     1    20
 -2.7315990040263555E-01 a       371     0    15     1    21
 -6.5912271526170185E-01 a       372     0    15     1    22
 -6.3249723818698678E-01 a       373     0    15     1    23
  1.5750187920940129E-01 a       374     0    15     1    24
 -9.3611964356493618E-02 a       375     0    15     1    25
 -4.1372005643107912E-01 a       376     0    16     1     1
 -1.5695264570815409E-01 a       377     0    16     1     2
 -2.4475084169879516E-01 a       378     0    16     1     3
 -5.9096290027141429E-01 a       379     0    16     1     4
 -1.4538955772425576E-02 a       380     0    16     1     5
 -2.0396821778182909E-02 a       381     0    16     1     6
 -5.5563585524118886E-02 a       382     0    16     1     7
  3.2149758876878765E-01 a       383     0    16     1     8
 -2.4000173316692253E-01 a       384     0    16     1     9
  1.2958002431147750E-01 a       385     0    16     1    10
 -9.8131220127990013E-02 a       386     0    16     1    11
  1.4670364212186504E-01 a       387     0    16     1    12
  4.0964977557870391E-01 a       388     0    16     1    13
 -3.7050191279367473E-01 a       389     0    16     1    14
 -8.0250277168984396E-01 a       390     0    16     1    15
  1.7949781668882248E-01 a       391     0    16     1    16
 -1.1666596881765985E-01 a       392     0    16     1    17
  1.2784041368347937E-01 a       393     0    16     1    18
  9.8172004028652046E-02 a       394     0    16     1    19
 -1.5052870044020611E-02 a       395     0    16     1    20
  4.6662280595403471E-01 a       396     0    16     1    21
  2.6947017449877064E-01 a       397     0    16     1    22
 -4.0758034372775136E-02 a       398     0    16     1    23
  2.0395364136896194E-01 a       399     0    16     1    24
  2.3271109578936117E-01 a       400     0    16     1    25
  3.9817189327932989E-01 a       401     0    17     1     1
 -9.7557468153536164E-02 a       402     0    17     1     2
 -1.6746613028589474E-01 a       403     0    17     1     3
  1.8468119774137860E-02 a       404     0    17     1     4
 -2.5223001948719334E-02 a       405     0    17     1     5
  6.5435418572044088E-02 a       406     0    17     1     6
 -1.3595527532025434E-01 a       407     0    17     1     7
 -4.1001258661193740E-01 a       408     0    17     1     8
  1.6145808436232742E-01 a       409     0    17     1     9
 -1.9342313262241462E-03 a       410     0    17     1    10
 -3.6965819757915702E-01 a       411     0    17     1    11
  3.4831859557717261E-02 a       412     0    17     1    12
 -7.1860390850760195E-02 a       413     0    17     1    13
 -1.6173519680534409E-01 a       414     0    17     1    14
 -1.1997232058820080E-01 a       415     0    17     1    15
  3.1151459866451686E-01 a       416     0    17     1    16
  4.1656262357752577E-01 a       417     0    17     1    17
 -1.1678201875308829E-01 a       418     0    17     1    18
  3.0866815892942562E-01 a       419     0    17     1    19
 -7.6883743757417988E-01 a       420     0    17     1    20
 -1.0969794586141117E-01 a       421     0    17     1    21
  3.0704434306327233E-01 a       422     0    17     1    22
  3.9281224268056336E-01 a       423     0    17     1    23
  4.2111640472933759E-01 a       424     0    17     1    24
  1.1105675736246295E-01 a       425     0    17     1    25
  1.5277357277569009E-01 a       426     0    18     1     1
  3.8006976730890990E-01 a       427     0    18     1     2
 -1.1565159468230977E-02 a       428     0    18     1     3
 -3.7624334019336197E-01 a       429     0    18     1     4
  2.3241045629249193E-02 a       430     0    18     1     5
  1.0514005222041767E-01 a       431     0    18     1     6
 -5.7791785353622588E-02 a       432     0    18     1     7
 -1.6072786121121254E-02 a       433     0    18     1     8
 -8.0340670653281432E-02 a       434     0    18     1     9
  3.0455728165072737E-01 a       435     0    18     1    10
  4.0656492623090769E-02 a       436     0    18     1    11
  3.9693440582186636E-02 a       437     0    18     1    12
  3.1221696081561923E-01 a       438     0    18     1    13
 -2.0146358855575636E-01 a       439     0    18     1    14
  1.5021312219644231E-01 a       440     0    18     1    15
 -1.8351347559084302E-01 a       441     0    18     1    16
 -2.1392949348877965E-01 a       442     0    18     1    17
  6.9360338305897301E-02 a       443     0    18     1    18
  3.6836600253923310E-02 a       444     0    18     1    19
  5.4760522621952523E-01 a       445     0    18     1    20
 -4.0667294525123160E-02 a       446     0    18     1    21
 -8.3860087884573015E-03 a       447     0    18     1    22
  3.5820899553774455E-01 a       448     0    18     1    23
 -1.7459709238228105E-01 a       449     0    18     1    24
  4.7863426250962626E-01 a       450     0    18     1    25
  1.9817584056245313E-01 a       451     0    19     1     1
 -3.0571027722382527E-01 a       452     0    19     1     2
 -4.0700606198339384E-01 a       453     0    19     1     3
  2.7865762804686289E-01 a       454     0    19     1     4
 -1.7612593070597032E-01 a       455     0    19     1     5
 -1.5719975537090564E-01 a       456     0    19     1     6
 -5.9780604232741924E-02 a       457     0    19     1     7
 -7.6943082016432476E-02 a       458     0    19     1     8
  6.6393541315613103E-01 a       459     0    19     1     9
  1.1244874050454307E-01 a       460     0    19     1    10
  6.6260292495217621E-01 a       461     0    19     1    11
  1.0600096501862184E-01 a       462     0    19     1    12
  6.6597603678543427E-01 a       463     0    19     1    13
 -2.2477520967422560E-01 a       464     0    19     1    14
  3.6231781287131026E-01 a       465     0    19     1    15
  6.4522168390488202E-02 a       466     0    19     1    16
 -4.7215257764905788E-01 a       467     0    19     1    17
 -9.8471187243571665E-03 a       468     0    19     1    18
 -3.1590340603150420E-02 a       469     0    19     1    19
  1.2221894517215653E-01 a       470     0    19     1    20
 -4.2458976340686522E-01 a       471     0    19     1    21
 -3.2604565261263990E-01 a       472     0    19     1    22
  6.4955850440669460E-01 a       473     0    19     1    23
 -2.2165999593212982E-01 a       474     0    19     1    24
  2.0719701204429041E-03 a       475     0    19     1    25
  3.6871047665783259E-02 a       476     0    20     1     1
  1.1387195028184582E-01 a       477     0    20     1     2
  3.3616344778885821E-01 a       478     0    20     1     3
  3.5337191231929188E-01 a       479     0    20     1     4
  1.4405575166089740E-01 a       480     0    20     1     5
 -2.0462772798679002E-01 a       481     0    20     1     6
  1.7593579570758983E-01 a       482     0    20     1     7
  4.0256118763611193E-01 a       483     0    20     1     8
 -4.8100128454994867E-01 a       484     0    20     1     9
  2.7102421222095407E-01 a       485     0    20     1    10
  2.0430420577935593E-01 a       486     0    20     1    11
 -7.3476106738825861E-02 a       487     0    20     1    12
 -3.3511346733596091E-02 a       488     0    20     1    13
 -2.6299359785454259E-02 a       489     0    20     1    14
  2.0920021475987136E-01 a       490     0    20     1    15
 -7.8870202906399067E-02 a       491     0    20     1    16
 -1.2676855675430353E-02 a       492     0    20     1    17
  2.5663537771462658E-01 a       493     0    20     1    18
  1.8437959446796534E-01 a       494     0    20     1    19
 -1.3034093667135838E-01 a       495     0    20     1    20
 -1.6524509502404702E-01 a       496     0    20     1    21
  2.9461669719021044E-01 a       497     0    20     1    22
 -1.0239601701010113E-01 a       498     0    20     1    23
 -9.0465956547581175E-02 a       499     0    20     1    24
  4.9142222528609211E-02 a       500     0    20     1    25
 -5.5267463614647849E-01 a       501     0    21     1     1
  3.7575798066677629E-02 a       502     0    21     1     2
  4.2692936956049532E-01 a       503     0    21     1     3
  3.5600434712210782E-01 a       504     0    21     1     4
 -4.2005582894535959E-02 a       505     0    21     1     5
  3.3899089543777305E-01 a       506     0    21     1     6
 -3.3277383889411372E-01 a       507     0    21     1     7
  1.1288374075017937E-01 a       508     0    21     1     8
  1.9356619082603210E-01 a       509     0    21     1     9
  3.0363654904948151E-01 a       510     0    21     1    10
  3.7662536379241211E-02 a       511     0    21     1    11
  1.7417801887323286E-01 a       512     0    21     1    12
 -3.8724773505178622E-01 a       513     0    21     1    13
  1.9377193778086368E-01 a       514     0    21     1    14
  2.6594605878035704E-01 a       515     0    21     1    15
  2.4131061481724156E-01 a       516     0    21     1    16
  4.4174656060030217E-02 a       517     0    21     1    17
 -2.4039654120004555E-02 a       518     0    21     1    18
 -3.5729483738834916E-01 a       519     0    21     1    19
  6.6884931588007901E-02 a       520     0    21     1    20
 -2.2574814520201109E-01 a       521     0    21     1    21
  7.3062312726033266E-02 a       522     0    21     1    22
 -3.0397305560535820E-01 a       523     0    21     1    23
 -3.1021778556620067E-01 a       524     0    21     1    24
 -2.3278063702860219E-01 a       525     0    21     1    25
  2.4582948347346215E-02 a       526     0    22     1     1
  2.1967387933623833E-01 a       527     0    22     1     2
  9.3499576743394971E-02 a       528     0    22     1     3
  1.9781876194603358E-02 a       529     0    22     1     4
 -5.3618329047377275E-02 a       530     0    22     1     5
  5.4877131991785816E-02 a       531     0    22     1     6
 -1.5626546980844449E-02 a       532     0    22     1     7
  2.0442181263175027E-01 a       533     0    22     1     8
  7.4475813909920793E-02 a       534     0    22     1     9
 -7.2913655228490248E-02 a       535     0    22     1    10
  1.6825250573183875E-01 a       536     0    22     1    11
 -5.9496027669805378E-02 a       537     0    22     1    12
 -3.9829925080960851E-02 a       538     0    22     1    13
 -3.0025899670094203E-01 a       539     0    22     1    14
  4.1612852888389035E-02 a       540     0    22     1    15
 -2.4525083363255035E-01 a       541     0    22     1    16
 -4.6867657765642551E-01 a       542     0    22     1    17
  2.8090344355142710E-01 a       543     0    22     1    18
  5.4009784132633021E-02 a       544     0    22     1    19
 -2.3962339278980979E-01 a       545     0    22     1    20
  4.2761670700912774E-02 a       546     0    22     1    21
  1.5300033730437723E-01 a       547     0    22     1    22
 -2.1439361290764178E-01 a       548     0    22     1    23
 -7.5904216206704275E-02 a       549     0    22     1    24
  7.4238875039098817E-02 a       550     0    22     1    25
 -1.9207293760475933E-01 a       551     0    23     1     1
  1.1369831121009371E-02 a       552     0    23     1     2
  2.9929674029814979E-01 a       553     0    23     1     3
 -1.0847086515925994E-01 a       554     0    23     1     4
  2.1486617748958906E-01 a       555     0    23     1     5
  5.5559579608732000E-02 a       556     0    23     1     6
  4.3643934651818855E-01 a       557     0    23     1     7
 -3.2331255065375536E-01 a       558     0    23     1     8
 -2.0055519510604877E-01 a       559     0    23     1     9
 -2.1007824673015524E-01 a       560     0    23     1    10
 -3.3951613821206372E-01 a       561     0    23     1    11
  7.1918233769249981E-03 a       562     0    23     1    12
 -3.3799179377219235E-01 a       563     0    23     1    13
  1.5709781504495640E-01 a       564     0    23     1    14
  4.5965101698081118E-03 a       565     0    23     1    15
 -1.3156286540683632E-01 a       566     0    23     1    16
 -1.0533379944905380E-01 a       567     0    23     1    17
 -1.5958102021477974E-01 a       568     0    23     1    18
  3.3645538508671380E-01 a       569     0    23     1    19
  2.7726622203739931E-01 a       570     0    23     1    20
 -9.4661975678691668E-02 a       571     0    23     1    21
 -9.5181993454416108E-02 a       572     0    23     1    22
  2.3725011116305392E-01 a       573     0    23     1    23
 -1.6073881738791035E-01 a       574     0    23     1    24
  1.4564292702183040E-01 a       575     0    23     1    25
 -1.0326428224928287E-01 a       576     0    24     1     1
  1.7582249551585803E-02 a       577     0    24     1     2
 -3.2735426755092327E-02 a       578     0    24     1     3
  4.9535774722863618E-01 a       579     0    24     1     4
 -2.2800779066735269E-01 a       580     0    24     1     5
 -2.2500588055351725E-01 a       581     0    24     1     6
  2.5175048894579277E-01 a       582     0    24     1     7
  2.3848751890568221E-01 a       583     0    24     1     8
  1.7336839067971890E-01 a       584     0    24     1     9
  1.5003000685762796E-01 a       585     0    24     1    10
  1.9966073267074574E-01 a       586     0    24     1    11
 -3.0749983408815468E-01 a       587     0    24     1    12
 -2.8118078724595191E-03 a       588     0    24     1    13
  3.5671073482115029E-01 a       589     0    24     1    14
  3.4314003132863402E-01 a       590     0    24     1    15
 -5.3421841129512204E-01 a       591     0    24     1    16
 -2.4162456687328407E-01 a       592     0    24     1    17
  5.7590141121048799E-03 a       593     0    24     1    18
 -1.2223740190314028E-01 a       594     0    24     1    19
  1.0075368840880433E-01 a       595     0    24     1    20
  7.2961267402529673E-02 a       596     0    24     1    21
 -2.5932390533360972E-01 a       597     0    24     1    22
 -4.7278830165019237E-01 a       598     0    24     1    23
 -2.1285356036017047E-01 a       599     0    24     1    24
 -3.0359628372795333E-01 a       600     0    24     1    25
  3.6908326961210675E-01 a       601     0    25     1     1
  2.9511130061777074E-01 a       602     0    25     1     2
 -2.4883663467907599E-01 a       603     0    25     1     3
 -4.1940514084593300E-01 a       604     0    25     1     4
 -3.4941642850199300E-01 a       605     0    25     1     5
  6.4988803202399015E-01 a       606     0    25     1     6
 -4.7490751004399767E-01 a       607     0    25     1     7
  4.4016237901805616E-01 a       608     0    25     1     8
  2.5498794951101461E-03 a       609     0    25     1     9
  1.2786426848135310E-01 a       610     0    25     1    10
  4.5085612803684066E-01 a       611     0    25     1    11
 -4.4924056320827917E-02 a       612     0    25     1    12
  5.7730504228800350E-01 a       613     0    25     1    13
 -2.2381991544677010E-01 a       614     0    25     1    14
 -3.4190599108629638E-01 a       615     0    25     1    15
  1.1116689576731917E-01 a       616     0    25     1    16
 -4.3494883735038271E-02 a       617     0    25     1    17
 -4.9537811934329795E-02 a       618     0    25     1    18
 -3.0380766315182866E-02 a       619     0    25     1    19
  8.0239102432368235E-03 a       620     0    25     1    20
  1.4112680643169365E-01 a       621     0    25     1    21
  1.6856962666670589E-01 a       622     0    25     1    22
  2.2711758782446290E-01 a       623     0    25     1    23
 -5.5648627517036320E-01 a       624     0    25     1    24
 -3.0352019488964299E-01 a       625     0    25     1    25
 -1.1424921250649347E-01 a       626     0    26     1     1
 -1.9997417184967597E-02 a       627     0    26     1     2
 -1.2552793543281918E-01 a       628     0    26     1     3
  3.9842991761763147E-02 a       629     0    26     1     4
  7.2065812490028164E-02 a       630     0    26     1     5
 -5.2103114419480130E-02 a       631     0    26     1     6
  1.2779536724602714E-01 a       632     0    26     1     7
  2.4217368503574024E-01 a       633     0    26     1     8
 -3.3906826781054977E-01 a       634     0    26     1     9
 -4.6403884842626565E-02 a       635     0    26     1    10
 -1.7854347664105735E-01 a       636     0    26     1    11
  1.3481375985078634E-01 a       637     0    26     1    12
  2.3502100739770976E-01 a       638     0    26     1    13
  2.0103161542543252E-01 a       639     0    26     1    14
  1.3602461624838172E-01 a       640     0    26     1    15
  8.0604141506323224E-02 a       641     0    26     1    16
  1.6225073611609978E-01 a       642     0    26     1    17
  5.0810674737359084E-02 a       643     0    26     1    18
  2.3023441810543868E-01 a       644     0    26     1    19
 -8.5702731740950014E-02 a       645     0    26     1    20
  2.4611210266581257E-01 a       646     0    26     1    21
  8.7455842202893916E-03 a       647     0    26     1    22
  2.0722627581171285E-02 a       648     0    26     1    23
 -4.7820957068426505E-03 a       649     0    26     1    24
 -1.2187292912336188E-01 a       650     0    26     1    25
  3.7148308110636769E-01 a       651     0    27     1     1
 -2.2360837158745925E-01 a       652     0    27     1     2
  1.4902383678313649E-01 a       653     0    27     1     3
 -4.1142541488918666E-01 a       654     0    27     1     4
 -1.0330856172987556E-01 a       655     0    27     1     5
  6.0314711367116902E-01 a       656     0    27     1     6
  9.4406226515849989E-01 a       657     0    27     1     7
 -3.4851131455898182E-01 a       658     0    27     1     8
 -1.0468053972520978E-01 a       659     0    27     1     9
  1.7308929998796956E-02 a       660     0    27     1    10
 -6.2383056890150634E-01 a       661     0    27     1    11
 -1.4418525524494924E-01 a       662     0    27     1    12
 -2.3714580076385264E-01 a       663     0    27     1    13
 -2.1150919655188893E-01 a       664     0    27     1    14
 -6.3296855588755208E-01 a       665     0    27     1    15
 -3.3911603451376487E-01 a       666     0    27     1    16
  2.5887291249115607E-01 a       667     0    27     1    17
 -4.0701639390487493E-01 a       668     0    27     1    18
  1.7509429867201090E-01 a       669     0    27     1    19
 -8.0182300320220878E-01 a       670     0    27     1    20
 -1.9028835883785913E-02 a       671     0    27     1    21
  4.4535425856706196E-01 a       672     0    27     1    22
  9.2580220677491748E-02 a       673     0    27     1    23
 -2.8725335368558308E-01 a       674     0    27     1    24
 -1.4642103940415002E-01 a       675     0    27     1    25
  4.4446244222533576E-01 a       676     0    28     1     1
 -6.0737104717276786E-04 a       677     0    28     1     2
 -8.9090069452001916E-02 a       678     0    28     1     3
 -5.3696961563833767E-01 a       679     0    28     1     4
  4.6719830628536729E-01 a       680     0    28     1     5
 -1.1833378582372978E-01 a       681     0    28     1     6
  2.6191475183148843E-01 a       682     0    28     1     7
 -5.7037776980702770E-01 a       683     0    28     1     8
  7.1690308031966285E-02 a       684     0    28     1     9
  2.8398027617873506E-01 a       685     0    28     1    10
 -3.6743194228460652E-01 a       686     0    28     1    11
 -3.1895008680293080E-01 a       687     0    28     1    12
 -1.0361483312804106E-03 a       688     0    28     1    13
 -4.8638481419610713E-01 a       689     0    28     1    14
 -6.9962843884648085E-01 a       690     0    28     1    15
 -8.1072201255034573E-02 a       691     0    28     1    16
 -6.2311272111084359E-01 a       692     0    28     1    17
  7.7472111871429250E-01 a       693     0    28     1    18
 -1.4548580048743617E-01 a       694     0    28     1    19
 -3.1041704724955310E-01 a       695     0    28     1    20
  2.6182932213476906E-01 a       696     0    28     1    21
  6.9399416363323904E-02 a       697     0    28     1    22
 -4.4697721303376320E-01 a       698     0    28     1    23
  3.6327758491590778E-01 a       699     0    28     1    24
  1.4509941627766991E-02 a       700     0    28     1    25
 -2.9391473089319686E-01 a       701     0    29     1     1
  3.6791408923058788E-01 a       702     0    29     1     2
  4.3711045745433563E-01 a       703     0    29     1     3
 -1.0916033226817520E-01 a       704     0    29     1     4
 -1.6052635091681186E-01 a       705     0    29     1     5
  6.5553383989954761E-01 a       706     0    29     1     6
 -1.0173523762437940E-01 a       707     0    29     1     7
  3.8514703127768868E-01 a       708     0    29     1     8
 -2.3003336644787362E-01 a       709     0    29     1     9
 -2.7755798500274926E-03 a       710     0    29     1    10
  4.1006677070396763E-01 a       711     0    29     1    11
  1.0897238283636329E-01 a       712     0    29     1    12
  8.3264198193912264E-01 a       713     0    29     1    13
  3.1171907213974076E-01 a       714     0    29     1    14
 -1.5195077214700681E-01 a       715     0    29     1    15
  3.4858331511827945E-01 a       716     0    29     1    16
  6.5374222539493476E-01 a       717     0    29     1    17
 -5.2128802674111874E-01 a       718     0    29     1    18
  2.6640708714363102E-02 a       719     0    29     1    19
 -4.8028982610470611E-01 a       720     0    29     1    20
 -2.1774579604919922E-02 a       721     0    29     1    21
  3.2182202090553769E-01 a       722     0    29     1    22
  1.0931209170113289E-01 a       723     0    29     1    23
 -1.7702428339290771E-01 a       724     0    29     1    24
  2.0442818916211991E-01 a       725     0    29     1    25
 -3.5996786639715735E-02 a       726     0    30     1     1
  1.3930119752209622E-01 a       727     0    30     1     2
 -2.2841536808137278E-01 a       728     0    30     1     3
 -3.8858383379350975E-01 a       729     0    30     1     4
 -3.5389125434506774E-01 a       730     0    30     1     5
 -3.3019657481277476E-01 a       731     0    30     1     6
 -3.6879093209911402E-02 a       732     0    30     1     7
 -2.4364698054656070E-01 a       733     0    30     1     8
 -2.6043609821745406E-01 a       734     0    30     1     9
  1.5559975373125415E-01 a       735     0    30     1    10
 -3.3208262786966702E-03 a       736     0    30     1    11
  4.1855394179581901E-01 a       737     0    30     1    12
  3.5177965477483523E-02 a       738     0    30     1    13
  9.6159784515495228E-02 a       739     0    30     1    14
 -2.1483966685568048E-01 a       740     0    30     1    15
 -1.6413008463852646E-01 a       741     0    30     1    16
  3.4535004295331878E-01 a       742     0    30     1    17
 -3.2711256983225724E-02 a       743     0    30     1    18
  4.3071923398090600E-01 a       744     0    30     1    19
  5.0283289175316333E-02 a       745     0    30     1    20
  1.0309955506155609E-01 a       746     0    30     1    21
 -6.2239179539250444E-01 a       747     0    30     1    22
 -2.4741579847638212E-01 a       748     0    30     1    23
  7.0731094699984065E-02 a       749     0    30     1    24
 -3.6724413165217149E-03 a       750     0    30     1    25
  1.0447716398765829E+00 a       751     0    31     1     1
 -6.1807277967739160E-02 a       752     0    31     1     2
 -9.1758737258571277E-01 a       753     0    31     1     3
  1.5007848574584298E-01 a       754     0    31     1     4
 -4.3591825684164948E-01 a       755     0    31     1     5
 -6.7026936245966662E-01 a       756     0    31     1     6
  5.3411873303084878E-01 a       757     0    31     1     7
 -1.4151809679427846E-01 a       758     0    31     1     8
 -4.3276948255581227E-01 a       759     0    31     1     9
 -4.0052853874978318E-02 a       760     0    31     1    10
 -8.3783221998849977E-01 a       761     0    31     1    11
 -1.1632881980267522E+00 a       762     0    31     1    12
  1.1370885686133010E+00 a       763     0    31     1    13
 -1.3085674216303383E-01 a       764     0    31     1    14
  1.3333489995146869E-01 a       765     0    31     1    15
 -4.1202597744140440E-01 a       766     0    31     1    16
 -9.7277437987407567E-01 a       767     0    31     1    17
  8.9833279421612722E-01 a       768     0    31     1    18
  8.0507386706586470E-01 a       769     0    31     1    19
  1.1441847804001891E-01 a       770     0    31     1    20
  3.5272513558946761E-01 a       771     0    31     1    21
  5.4356761971336143E-01 a       772     0    31     1    22
  3.1794582294483775E-01 a       773     0    31     1    23
  6.7654536169458282E-02 a       774     0    31     1    24
 -4.3902733003931138E-01 a       775     0    31     1    25
 -9.2670450313606634E-01 a       776     0    32     1     1
  1.0344258512448470E-01 a       777     0    32     1     2
  4.2135090507470002E-01 a       778     0    32     1     3
 -4.6701558841535923E-01 a       779     0    32     1     4
 -6.3581003519666379E-01 a       780     0    32     1     5
  1.6041152011626278E+00 a       781     0    32     1     6
 -6.0049008738503229E-01 a       782     0    32     1     7
 -2.5934665518529021E-01 a       783     0    32     1     8
  3.5867539993719605E-01 a       784     0    32     1     9
  4.2076130956867419E-01 a       785     0    32     1    10
  9.0859834161183251E-01 a       786     0    32     1    11
  7.8746595257726026E-01 a       787     0    32     1    12
 -1.1082878501885212E+00 a       788     0    32     1    13
  8.1270087475369390E-01 a       789     0    32     1    14
  4.1158938496053876E-01 a       790     0    32     1    15
  6.9058026724736132E-01 a       791     0    32     1    16
  1.1399190356008300E+00 a       792     0    32     1    17
 -9.2381442479554909E-01 a       793     0    32     1    18
  1.4284312346728911E-03 a       794     0    32     1    19
  2.9464738965877507E-02 a       795     0    32     1    20
 -1.3506152704172389E+00 a       796     0    32     1    21
 -2.9388460496875918E-01 a       797     0    32     1    22
 -9.7877952767241122E-02 a       798     0    32     1    23
 -1.1814403534712850E+00 a       799     0    32     1    24
  1.4743978905570367E+00 a       800     0    32     1    25
  4.3083756849867166E-01 a       801     0    33     1     1
 -3.7741529438201338E-01 a       802     0    33     1     2
  5.0781107395117575E-01 a       803     0    33     1     3
  6.0835842543086283E-01 a       804     0    33     1     4
 -1.5002824938956152E-01 a       805     0    33     1     5
 -2.4312275851776000E-01 a       806     0    33     1     6
  4.8988511225676344E-02 a       807     0    33     1     7
  8.2284413438858339E-02 a       808     0    33     1     8
  4.8250890534298013E-01 a       809     0    33     1     9
  1.1269097208451768E-01 a       810     0    33     1    10
  7.7157409616669481E-01 a       811     0    33     1    11
  4.1302491903090849E-01 a       812     0    33     1    12
  2.4631446083491176E-01 a       813     0    33     1    13
  2.3709640658636419E-01 a       814     0    33     1    14
 -4.3180491771343993E-01 a       815     0    33     1    15
 -3.2057275299386473E-01 a       816     0    33     1    16
  2.2115806201615554E-01 a       817     0    33     1    17
 -3.9976610576337090E-01 a       818     0    33     1    18
 -2.7003640079458252E-01 a       819     0    33     1    19
  1.1088506522856881E-02 a       820     0    33     1    20
  1.2909943715742661E-01 a       821     0    33     1    21
  2.1267907558458632E-01 a       822     0    33     1    22
  2.2146384952717463E-01 a       823     0    33     1    23
  1.0703695018952299E-01 a       824     0    33     1    24
  5.1249689445487710E-02 a       825     0    33     1    25
 -2.8235011120016718E-01 a       826     0    34     1     1
 -2.7092425763676048E-01 a       827     0    34     1     2
 -4.1002101001960811E-01 a       828     0    34     1     3
 -9.2503872193499337E-01 a       829     0    34     1     4
 -6.2723968854287115E-01 a       830     0    34     1     5
  1.3821885834706893E+00 a       831     0    34     1     6
 -4.1181095171988147E-01 a       832     0    34     1     7
  1.8302699432955880E-01 a       833     0    34     1     8
  1.2996954440092288E+00 a       834     0    34     1     9
  9.8830884965650878E-01 a       835     0    34     1    10
 -3.3427039839782724E-01 a       836     0    34     1    11
 -5.4045440209352391E-01 a       837     0    34     1    12
 -1.4297627715829800E-01 a       838     0    34     1    13
 -2.3910426739856397E-01 a       839     0    34     1    14
  5.9170621513464139E-01 a       840     0    34     1    15
  3.0089528929661680E-01 a       841     0    34     1    16
  3.7508225631765074E-01 a       842     0    34     1    17
 -8.9102802760604072E-01 a       843     0    34     1    18
  3.0969520478537373E-02 a       844     0    34     1    19
 -2.1908761836811058E-01 a       845     0    34     1    20
 -1.5289716724781797E+00 a       846     0    34     1    21
 -4.0183339031137733E-01 a       847     0    34     1    22
  9.5144130686946091E-02 a       848     0    34     1    23
 -4.0112379075605814E-01 a       849     0    34     1    24
  6.9133433939745315E-01 a       850     0    34     1    25
  1.4824252005136427E+00 a       851     0    35     1     1
  1.3505716009470245E-01 a       852     0    35     1     2
 -1.9333544487648116E-01 a       853     0    35     1     3
  1.1504024974168117E+00 a       854     0    35     1     4
  1.1362104546673599E+00 a       855     0    35     1     5
 -1.9913098190412382E+00 a       856     0    35     1     6
  9.1601203915727680E-01 a       857     0    35     1     7
  5.6937087691514110E-01 a       858     0    35     1     8
 -9.3102313923001523E-01 a       859     0    35     1     9
 -1.0494560760549114E+00 a       860     0    35     1    10
 -9.7431219792602788E-02 a       861     0    35     1    11
 -1.2607936855850475E+00 a       862     0    35     1    12
  1.0257025826779662E+00 a       863     0    35     1    13
 -8.8573504893818689E-01 a       864     0    35     1    14
 -1.0073605883793078E+00 a       865     0    35     1    15
 -1.0549434530484050E+00 a       866     0    35     1    16
 -1.1494698627575890E+00 a       867     0    35     1    17
  1.6648554741389971E+00 a       868     0    35     1    18
  3.5928232406618199E-01 a       869     0    35     1    19
 -1.6427247250354174E-01 a       870     0    35     1    20
  1.2672580990706259E+00 a       871     0    35     1    21
  4.0363188453286708E-01 a       872     0    35     1    22
 -3.2488197551506359E-01 a       873     0    35     1    23
  1.0380839194199032E+00 a       874     0    35     1    24
 -7.5940254855774370E-01 a       875     0    35     1    25
 -1.2733682746775292E+00 a       876     0    36     1     1
  2.3077405955660824E-01 a       877     0    36     1     2
  3.0576659565870740E-01 a       878     0    36     1     3
  1.5889167820731201E-02 a       879     0    36     1     4
 -3.4123288610465852E-01 a       880     0    36     1     5
  6.8913007305370555E-01 a       881     0    36     1     6
 -3.1867241683131081E-01 a       882     0    36     1     7
 -2.7443311917650226E-01 a       883     0    36     1     8
  3.9576993665284105E-01 a       884     0    36     1     9
  7.2438506127628122E-01 a       885     0    36     1    10
  3.1568207528202324E-01 a       886     0    36     1    11
  8.5353585512136743E-01 a       887     0    36     1    12
 -8.2209732508208344E-01 a       888     0    36     1    13
  9.0990457862200758E-01 a       889     0    36     1    14
  7.5865995636178851E-01 a       890     0    36     1    15
  7.9130846718719816E-01 a       891     0    36     1    16
  4.3821567179794868E-01 a       892     0    36     1    17
 -7.4789193282214350E-01 a       893     0    36     1    18
  1.3690132340084496E-01 a       894     0    36     1    19
  1.1465748019709766E-01 a       895     0    36     1    20
 -2.6457216351435431E-01 a       896     0    36     1    21
  2.2453367367844829E-02 a       897     0    36     1    22
  2.4780281081818539E-01 a       898     0    36     1    23
 -5.1405437167117385E-01 a       899     0    36     1    24
  1.7541211709346632E-01 a       900     0    36     1    25
 -7.3039142241068300E-01 a       901     0    37     1     1
  1.2911720457924521E-02 a       902     0    37     1     2
 -1.8100702400284241E-01 a       903     0    37     1     3
  3.2567437071918748E-01 a       904     0    37     1     4
 -1.2478653009139613E-01 a       905     0    37     1     5
 -1.5981139019668811E-01 a       906     0    37     1     6
  2.7700826586679944E-01 a       907     0    37     1     7
  2.0793380293058489E-01 a       908     0    37     1     8
 -1.6445457148819950E-01 a       909     0    37     1     9
  6.1408070234981030E-02 a       910     0    37     1    10
  5.8332777022001958E-02 a       911     0    37     1    11
  4.8178386197492068E-01 a       912     0    37     1    12
 -2.5950601505892607E-01 a       913     0    37     1    13
 -2.3127024636043983E-01 a       914     0    37     1    14
  5.8552519537831105E-01 a       915     0    37     1    15
 -6.4830834183718836E-02 a       916     0    37     1    16
 -2.9568529173825367E-02 a       917     0    37     1    17
  4.1090533793552597E-01 a       918     0    37     1    18
  1.1019541916784528E-02 a       919     0    37     1    19
  5.0678366432429811E-01 a       920     0    37     1    20
  1.8307078889438014E-01 a       921     0    37     1    21
 -3.3729755054617422E-01 a       922     0    37     1    22
  2.9355832688237573E-02 a       923     0    37     1    23
  4.0217691240054049E-01 a       924     0    37     1    24
 -8.9538261350277787E-02 a       925     0    37     1    25
  8.0612874979742266E-01 a       926     0    38     1     1
  2.5144996357272315E-01 a       927     0    38     1     2
 -4.0320910448516278E-01 a       928     0    38     1     3
 -3.6884790512770027E-01 a       929     0    38     1     4
 -6.6429224531202712E-03 a       930     0    38     1     5
  1.7223392691293499E-01 a       931     0    38     1     6
 -2.6812876017259860E-02 a       932     0    38     1     7
 -1.7049618395270141E-01 a       933     0    38     1     8
 -1.4376043316449222E-01 a       934     0    38     1     9
 -2.5708056253088213E-01 a       935     0    38     1    10
 -1.4426652247205649E-03 a       936     0    38     1    11
 -5.1440407312436487E-01 a       937     0    38     1    12
 -2.8932331526835381E-01 a       938     0    38     1    13
  1.3760947373436030E-01 a       939     0    38     1    14
 -3.5528639227511799E-01 a       940     0    38     1    15
 -6.9927771546312908E-03 a       941     0    38     1    16
  1.2558084792758467E-01 a       942     0    38     1    17
  4.3228271768563370E-01 a       943     0    38     1    18
 -6.7774076746557707E-02 a       944     0    38     1    19
  5.6933846698345288E-02 a       945     0    38     1    20
  3.4128281838804764E-01 a       946     0    38     1    21
  2.0905614791289828E-01 a       947     0    38     1    22
  4.3687541342728609E-01 a       948     0    38     1    23
  2.3491370364456987E-01 a       949     0    38     1    24
  1.8659316053554401E-01 a       950     0    38     1    25
  2.9763878784251441E-01 a       951     0    39     1     1
  3.2813960144555387E-01 a       952     0    39     1     2
 -4.6057803131106195E-01 a       953     0    39     1     3
  3.8318234835785575E-01 a       954     0    39     1     4
  7.2376661758674458E-03 a       955     0    39     1     5
 -7.1812456817410986E-01 a       956     0    39     1     6
  2.2863130675408513E-01 a       957     0    39     1     7
  3.5863196742634978E-01 a       958     0    39     1     8
 -5.9201149613069570E-01 a       959     0    39     1     9
 -2.1532227657949277E-01 a       960     0    39     1    10
  7.0523459236792069E-02 a       961     0    39     1    11
 -6.2036490225999705E-02 a       962     0    39     1    12
  2.5918853725329821E-01 a       963     0    39     1    13
 -5.5472628532192814E-02 a       964     0    39     1    14
 -4.7012694365540530E-01 a       965     0    39     1    15
 -1.6594978825329779E-01 a       966     0    39     1    16
 -5.8576124626442211E-02 a       967     0    39     1    17
  4.7007797888048408E-01 a       968     0    39     1    18
  2.6921337239985393E-01 a       969     0    39     1    19
 -3.7402712286969220E-01 a       970     0    39     1    20
  8.0649758466811228E-01 a       971     0    39     1    21
  7.5353556013510584E-02 a       972     0    39     1    22
  6.4764108496173270E-02 a       973     0    39     1    23
  3.5770352737146682E-01 a       974     0    39     1    24
 -1.9320276543955081E-01 a       975     0    39     1    25
 -2.7484902782647219E-01 a       976     0    40     1     1
 -2.5813720981572027E-02 a       977     0    40     1     2
  3.3807011607178195E-02 a       978     0    40     1     3
  5.1798261546262458E-01 a       979     0    40     1     4
  5.2582071924292439E-01 a       980     0    40     1     5
 -4.6036994567531431E-01 a       981     0    40     1     6
 -2.7628226095052094E-01 a       982     0    40     1     7
  7.9069709840588476E-02 a       983     0    40     1     8
  1.3346311304988956E-01 a       984     0    40     1     9
 -6.2114767531508297E-01 a       985     0    40     1    10
 -1.4588060239972675E-01 a       986     0    40     1    11
  6.8621257868596786E-01 a       987     0    40     1    12
  6.2436837337010709E-01 a       988     0    40     1    13
 -2.7821025061723892E-01 a       989     0    40     1    14
 -1.5200528498810265E-01 a       990     0    40     1    15
 -1.5028841482244171E-01 a       991     0    40     1    16
 -1.6887081834187639E-01 a       992     0    40     1    17
  4.9792331554282060E-02 a       993     0    40     1    18
  1.1074652577846508E-02 a       994     0    40     1    19
  7.8169606005709519E-02 a       995     0    40     1    20
 -9.8902689595595644E-03 a       996     0    40     1    21
  3.9003962304628320E-03 a       997     0    40     1    22
 -5.7991156328353555E-01 a       998     0    40     1    23
  2.5548887601598815E-02 a       999     0    40     1    24
 -6.0440135354750790E-01 a      1000     0    40     1    25
 -3.7226362215241277E-01 a      1001     0    41     1     1
  7.3814158000827012E-03 a      1002     0    41     1     2
  5.5019482547498744E-01 a      1003     0    41     1     3
  2.9771955101835523E-01 a      1004     0    41     1     4
  2.1545445249364542E-01 a      1005     0    41     1     5
  1.4463467871229052E-01 a      1006     0    41     1     6
 -3.2848699883785493E-01 a      1007     0    41     1     7
  2.7457310894709732E-02 a      1008     0    41     1     8
  2.9806030357049140E-01 a      1009     0    41     1     9
  4.4256069960959869E-02 a      1010     0    41     1    10
 -1.2086054005223248E-01 a      1011     0    41     1    11
 -4.3272067222267362E-02 a      1012     0    41     1    12
 -5.7882781798519756E-01 a      1013     0    41     1    13
  4.4904019079866986E-01 a      1014     0    41     1    14
  6.0323565949243117E-02 a      1015     0    41     1    15
  3.4681110546319088E-02 a      1016     0    41     1    16
  2.8755539276933179E-01 a      1017     0    41     1    17
 -6.2216427163262145E-01 a      1018     0    41     1    18
 -9.2461121436297408E-02 a      1019     0    41     1    19
 -1.7554045558785197E-01 a      1020     0    41     1    20
  5.4600343965220906E-02 a      1021     0    41     1    21
 -1.4900617770764854E-01 a      1022     0    41     1    22
 -4.2878236576443124E-01 a      1023     0    41     1    23
  1.8889016395745303E-01 a      1024     0    41     1    24
 -1.1641752352598292E-01 a      1025     0    41     1    25
  4.3621526681685799E-02 a      1026     0    42     1     1
  4.5954993839210999E-02 a      1027     0    42     1     2
 -2.7015159350187795E-01 a      1028     0    42     1     3
 -7.5580715647513053E-01 a      1029     0    42     1     4
 -3.9129039257150949E-01 a      1030     0    42     1     5
  9.5038611408268836E-01 a      1031     0    42     1     6
 -6.5325510011745913E-01 a      1032     0    42     1     7
 -1.0024837924243438E-01 a      1033     0    42     1     8
 -1.0987066920892063E-01 a      1034     0    42     1     9
  4.7178716352385422E-02 a      1035     0    42     1    10
  6.3091341242194440E-02 a      1036     0    42     1    11
  2.1557741923433085E-01 a      1037     0    42     1    12
 -5.1383325915338918E-01 a      1038     0    42     1    13
  2.6780990023286011E-01 a      1039     0    42     1    14
 -7.9173902464663881E-02 a      1040     0    42     1    15
  8.0816502828618533E-02 a      1041     0    42     1    16
  5.8540474003905318E-01 a      1042     0    42     1    17
 -3.5771729102807914E-01 a      1043     0    42     1    18
 -2.9445969183246559E-02 a      1044     0    42     1    19
 -4.6573692380541354E-01 a      1045     0    42     1    20
 -4.7779825467781417E-01 a      1046     0    42     1    21
  2.1686213865952844E-01 a      1047     0    42     1    22
  4.5964776886214542E-01 a      1048     0    42     1    23
 -4.5064743591663170E-01 a      1049     0    42     1    24
  8.1260387514260646E-01 a      1050     0    42     1    25
 -8.5531553288824747E-01 a      1051     0    43     1     1
  2.3783807092327905E-01 a      1052     0    43     1     2
  7.4460633800908382E-01 a      1053     0    43     1     3
 -6.6558219292441684E-02 a      1054     0    43     1     4
 -1.3207492944227034E-01 a      1055     0    43     1     5
  4.3835648987204573E-01 a      1056     0    43     1     6
 -3.5599597078689366E-01 a      1057     0    43     1     7
  3.5238098365832293E-01 a      1058     0    43     1     8
  1.4712811881443130E-01 a      1059     0    43     1     9
  7.6962893123233886E-02 a      1060     0    43     1    10
  4.2110624979097255E-01 a      1061     0    43     1    11
  5.3643638110379599E-01 a      1062     0    43     1    12
 -6.4032376163805038E-01 a      1063     0    43     1    13
  2.0451346286745298E-01 a      1064     0    43     1    14
  4.6856383041160334E-02 a      1065     0    43     1    15
  1.0455664658457856E-01 a      1066     0    43     1    16
  2.5519434143654718E-01 a      1067     0    43     1    17
 -4.2554829831010271E-01 a      1068     0    43     1    18
 -2.9382351952208141E-01 a      1069     0    43     1    19
 -2.6018171750446357E-02 a      1070     0    43     1    20
 -2.9742575886231032E-01 a      1071     0    43     1    21
 -2.0138455951392847E-01 a      1072     0    43     1    22
 -5.0479813946919039E-01 a      1073     0    43     1    23
 -3.1473881145677968E-01 a      1074     0    43     1    24
  1.3625205314604349E-01 a      1075     0    43     1    25
 -5.5162117289850898E-01 a      1076     0    44     1     1
 -1.6518270153031261E-01 a      1077     0    44     1     2
 -2.3322488630517343E-01 a      1078     0    44     1     3
  4.1663952433160756E-01 a      1079     0    44     1     4
 -4.7343787758472666E-01 a      1080     0    44     1     5
 -5.7681687372488899E-01 a      1081     0    44     1     6
 -1.1346092311607754E-01 a      1082     0    44     1     7
  4.5860868725594783E-01 a      1083     0    44     1     8
 -3.8889415155527872E-02 a      1084     0    44     1     9
  3.4459626470983334E-01 a      1085     0    44     1    10
 -3.5765605084539104E-01 a      1086     0    44     1    11
  5.9631810270105534E-01 a      1087     0    44     1    12
  3.8570996012629843E-01 a      1088     0    44     1    13
 -2.5802473497512696E-01 a      1089     0    44     1    14
 -1.5353399480273838E-01 a      1090     0    44     1    15
  2.6824328395298802E-01 a      1091     0    44     1    16
 -4.6827149330693157E-01 a      1092     0    44     1    17
  5.1158469979835675E-01 a      1093     0    44     1    18
  3.8240203166446107E-01 a      1094     0    44     1    19
  8.8479446746871693E-02 a      1095     0    44     1    20
  2.9375519515609855E-01 a      1096     0    44     1    21
 -7.1973755008367208E-03 a      1097     0    44     1    22
  1.0762778834052655E-01 a      1098     0    44     1    23
  3.8250766719788748E-01 a      1099     0    44     1    24
 -3.9711168873507469E-01 a      1100     0    44     1    25
  7.3601916754956664E-01 a      1101     0    45     1     1
  8.8292278278845657E-02 a      1102     0    45     1     2
 -1.2056015248083294E+00 a      1103     0    45     1     3
 -5.3774713733521640E-01 a      1104     0    45     1     4
 -1.1198716995696600E-01 a      1105     0    45     1     5
  7.1039261603443327E-01 a      1106     0    45     1     6
 -3.8544218742702169E-01 a      1107     0    45     1     7
 -3.7497785679936146E-01 a      1108     0    45     1     8
  5.0084020327088741E-01 a      1109     0    45     1     9
  3.1023779739088941E-01 a      1110     0    45     1    10
 -5.5279125231523596E-01 a      1111     0    45     1    11
 -1.0782126020835328E+00 a      1112     0    45     1    12
 -3.9192600126823246E-01 a      1113     0    45     1    13
 -6.9874924171325695E-02 a      1114     0    45     1    14
 -3.2426693075986718E-01 a      1115     0    45     1    15
  4.2141005804389081E-01 a      1116     0    45     1    16
  5.7394530662791854E-01 a      1117     0    45     1    17
 -6.7712246810784660E-01 a      1118     0    45     1    18
  5.2623818472538419E-01 a      1119     0    45     1    19
 -5.6883447168862344E-01 a      1120     0    45     1    20
 -3.0615102954933066E-01 a      1121     0    45     1    21
 -2.1227733739985266E-01 a      1122     0    45     1    22
  1.7027481294943074E-02 a      1123     0    45     1    23
 -4.5761986898421775E-01 a      1124     0    45     1    24
  4.5098592690869704E-01 a      1125     0    45     1    25
  5.5455604660247371E-01 a      1126     0    46     1     1
 -6.7914985138416165E-02 a      1127     0    46     1     2
  7.7176410011621177E-02 a      1128     0    46     1     3
 -2.5638689482884031E-01 a      1129     0    46     1     4
 -8.8879778195579601E-02 a      1130     0    46     1     5
 -8.8257315233970443E-02 a      1131     0    46     1     6
  9.9463480317199857E-02 a      1132     0    46     1     7
 -4.0156394950521352E-03 a      1133     0    46     1     8
 -3.5169690797225017E-01 a      1134     0    46     1     9
 -1.4802759393757610E-02 a      1135     0    46     1    10
  3.1493677808059012E-01 a      1136     0    46     1    11
 -1.1227724224796398E-01 a      1137     0    46     1    12
  3.4658775865101782E-01 a      1138     0    46     1    13
  2.6662166110869245E-01 a      1139     0    46     1    14
 -7.0363704557577400E-02 a      1140     0    46     1    15
 -2.7577454999555706E-01 a      1141     0    46     1    16
 -6.1698256443151210E-02 a      1142     0    46     1    17
  2.6227816669525639E-01 a      1143     0    46     1    18
  8.5589783819419771E-02 a      1144     0    46     1    19
 -5.3076480107840251E-01 a      1145     0    46     1    20
  3.8565544383423034E-01 a      1146     0    46     1    21
 -4.4308868172277693E-02 a      1147     0    46     1    22
 -1.7528891204456058E-02 a      1148     0    46     1    23
  1.3366687256483262E-01 a      1149     0    46     1    24
  6.4176648364702615E-01 a      1150     0    46     1    25
  6.1819281289392669E-01 a      1151     0    47     1     1
 -1.9835212220555895E-01 a      1152     0    47     1     2
  1.5344244023982226E-01 a      1153     0    47     1     3
  1.6504411375975450E-01 a      1154     0    47     1     4
  6.7767214666188041E-02 a      1155     0    47     1     5
 -6.7281528438061577E-01 a      1156     0    47     1     6
  4.0719599405236706E-01 a      1157     0    47     1     7
  3.8321214249354724E-01 a      1158     0    47     1     8
 -1.4886662774871043E-01 a      1159     0    47     1     9
 -1.8390560770615208E-01 a      1160     0    47     1    10
  1.1276167030452418E-01 a      1161     0    47     1    11
 -3.1130575690779466E-01 a      1162     0    47     1    12
  8.4810674890961024E-01 a      1163     0    47     1    13
 -4.9312797888290177E-01 a      1164     0    47     1    14
 -6.3537200771621977E-02 a      1165     0    47     1    15
 -8.4715505865738361E-01 a      1166     0    47     1    16
 -7.7082730127448029E-01 a      1167     0    47     1    17
  5.2962500082433939E-01 a      1168     0    47     1    18
 -1.9949544968387659E-01 a      1169     0    47     1    19
 -3.7678597880923576E-01 a      1170     0    47     1    20
  4.5736788577957649E-01 a      1171     0    47     1    21
  1.3856133296597522E-02 a      1172     0    47     1    22
 -2.9325722929217135E-01 a      1173     0    47     1    23
  3.3829650933076455E-01 a      1174     0    47     1    24
 -4.1834627592713497E-01 a      1175     0    47     1    25
 -2.3879054764737778E-01 a      1176     0    48     1     1
  3.0862883902529498E-01 a      1177     0    48     1     2
  5.7605485394456324E-01 a      1178     0    48     1     3
  5.3456682027433655E-01 a      1179     0    48     1     4
  3.7057099738511112E-01 a      1180     0    48     1     5
 -2.2437773057190721E-01 a      1181     0    48     1     6
 -9.2533246715574835E-02 a      1182     0    48     1     7
 -7.5903494920290426E-01 a      1183     0    48     1     8
  1.7891754057598439E-01 a      1184     0    48     1     9
 -3.0846364760350575E-01 a      1185     0    48     1    10
  5.6280036659861210E-01 a      1186     0    48     1    11
  7.7317369636608524E-01 a      1187     0    48     1    12
 -1.0233221635497012E+00 a      1188     0    48     1    13
  5.3184589787342151E-01 a      1189     0    48     1    14
 -2.2495944712888916E-01 a      1190     0    48     1    15
  9.7800701250412583E-02 a      1191     0    48     1    16
  9.9291242163579291E-02 a      1192     0    48     1    17
 -1.2390109693988857E-01 a      1193     0    48     1    18
 -1.5931958137967997E-01 a      1194     0    48     1    19
  3.0292868208737406E-01 a      1195     0    48     1    20
  1.6113475100025357E-01 a      1196     0    48     1    21
 -2.4466315988515233E-01 a      1197     0    48     1    22
 -6.6469869237189630E-02 a      1198     0    48     1    23
 -3.7024083403799019E-01 a      1199     0    48     1    24
  4.1802678702184015E-01 a      1200     0    48     1    25
 -1.3076233644258531E-01 a      1201     0    49     1     1
  3.3447288756866550E-01 a      1202     0    49     1     2
  1.9441149462902663E-01 a      1203     0    49     1     3
  2.2597773650731698E-01 a      1204     0    49     1     4
  6.2178485762758262E-01 a      1205     0    49     1     5
 -4.1155282640377466E-01 a      1206     0    49     1     6
  7.4963002982638016E-01 a      1207     0    49     1     7
 -2.3704265056919757E-01 a      1208     0    49     1     8
  7.0340127489642290E-01 a      1209     0    49     1     9
 -1.0600817357115400E-01 a      1210     0    49     1    10
 -7.8150313139699645E-01 a      1211     0    49     1    11
  3.3632271516213913E-01 a      1212     0    49     1    12
  6.7428309205458947E-01 a      1213     0    49     1    13
 -7.3845413606027965E-01 a      1214     0    49     1    14
 -4.7564521450934011E-01 a      1215     0    49     1    15
 -4.4616477702514951E-01 a      1216     0    49     1    16
 -3.0483520580372458E-01 a      1217     0    49     1    17
  2.4497468899437505E-01 a      1218     0    49     1    18
 -2.8700467872054947E-01 a      1219     0    49     1    19
  4.5079842559999067E-01 a      1220     0    49     1    20
 -4.1419490145412041E-01 a      1221     0    49     1    21
  2.3387057362123223E-01 a      1222     0    49     1    22
  9.3742566816185346E-01 a      1223     0    49     1    23
  1.7581436634118719E-01 a      1224     0    49     1    24
 -1.0837681642161208E+00 a      1225     0    49     1    25
  2.3945559013997997E-01 a      1226     0    50     1     1
 -3.7943344142565844E-01 a      1227     0    50     1     2
  7.5202140578826376E-02 a      1228     0    50     1     3
  7.9771752039463240E-01 a      1229     0    50     1     4
 -4.9817139249308640E-02 a      1230     0    50     1     5
  1.6705711192994180E-01 a      1231     0    50     1     6
  1.1495865440451749E-02 a      1232     0    50     1     7
 -1.2346995935001860E-01 a      1233     0    50     1     8
  1.9295555888811339E-01 a      1234     0    50     1     9
 -2.7062799203667637E-01 a      1235     0    50     1    10
 -5.0410622680343561E-02 a      1236     0    50     1    11
 -5.5025990690913973E-01 a      1237     0    50     1    12
 -4.6364938243637904E-01 a      1238     0    50     1    13
  4.0008516765271879E-01 a      1239     0    50     1    14
  6.2400867667102144E-01 a      1240     0    50     1    15
 -4.1746101571142108E-01 a      1241     0    50     1    16
 -3.0370768653234953E-01 a      1242     0    50     1    17
 -2.8093327900098908E-01 a      1243     0    50     1    18
 -3.6634585401484598E-01 a      1244     0    50     1    19
  4.9523983359603474E-01 a      1245     0    50     1    20
 -1.7145601510041056E-01 a      1246     0    50     1    21
 -3.1926672651468524E-01 a      1247     0    50     1    22
  6.6063778086666358E-02 a      1248     0    50     1    23
 -3.5631420923946078E-01 a      1249     0    50     1    24
 -1.2670172745457522E-01 a      1250     0    50     1    25
 -3.0399159814460390E-02 b      1251     1     1
  7.4192783138469845E-02 b      1252     1     2
  4.2015977963907269E-02 b      1253     1     3
  4.6874080663781868E-02 b      1254     1     4
 -3.9043686491674191E-03 b      1255     1     5
  4.1567384704832649E-02 b      1256     1     6
  1.0255283303400305E-01 b      1257     1     7
  4.5548038935802983E-02 b      1258     1     8
  7.5754403990483860E-02 b      1259     1     9
 -3.2615067301413198E-02 b      1260     1    10
  2.5452980183685421E-02 b      1261     1    11
 -6.3950509999347094E-02 b      1262     1    12
 -3.7840417735347874E-02 b      1263     1    13
  2.1394346255164461E-02 b      1264     1    14
 -1.3899008542135537E-02 b      1265     1    15
 -6.7069238540974296E-02 b      1266     1    16
 -9.3959380054858266E-03 b      1267     1    17
 -3.2359896156102699E-02 b      1268     1    18
  7.4845305265989662E-02 b      1269     1    19
  1.3109623475217951E-02 b      1270     1    20
  1.0460791847909047E-02 b      1271     1    21
  9.2653304726065783E-02 b      1272     1    22
  6.2428051963323870E-02 b      1273     1    23
 -1.0819885717081133E-01 b      1274     1    24
  5.8395758504959080E-02 b      1275     1    25
 -1.7920892958723414E-01 a      1276     1     1     2     1
 -2.0902787079683280E-01 a      1277     1     1     2     2
 -6.1114378397485866E-03 a      1278     1     1     2     3
  2.3440287855785111E-01 a      1279     1     1     2     4
 -1.6215453753532805E-01 a      1280     1     1     2     5
  2.0146078682953353E-01 a      1281     1     1     2     6
  2.1691909920168010E-02 a      1282     1     1     2     7
  3.5422028698928260E-01 a      1283     1     1     2     8
  7.3388052946698062E-02 a      1284     1     1     2     9
  3.3847836409745491E-01 a      1285     1     1     2    10
 -4.8612944115911376E-02 a      1286     1     1     2    11
  2.9935961707591724E-01 a      1287     1     1     2    12
 -2.9021129438476179E-01 a      1288     1     1     2    13
  5.3738879267731099E-01 a      1289     1     1     2    14
  2.6101289391288218E-01 a      1290     1     1     2    15
  3.9907845299919024E-02 a      1291     1     1     2    16
 -3.0479850844701423E-01 a      1292     1     1     2    17
 -1.6262957968646952E-01 a      1293     1     1     2    18
 -2.5697217591078653E-01 a      1294     1     1     2    19
 -4.8676741817553451E-02 a      1295     1     1     2    20
 -1.5853451683751846E-01 a      1296     1     1     2    21
 -1.6561639469430287E-01 a      1297     1     1     2    22
 -3.4038681322441096E-02 a      1298     1     1     2    23
 -5.1442591623379574E-01 a      1299     1     1     2    24
 -4.1412109015275189E-01 a      1300     1     1     2    25
  6.2265895357037401E-02 a      1301     1     2     2     1
 -4.4166589676972756E-01 a      1302     1     2     2     2
 -2.5471831584055700E-02 a      1303     1     2     2     3
 -1.4776523454076876E-01 a      1304     1     2     2     4
  3.2128610655293355E-01 a      1305     1     2     2     5
  6.6531462603213476E-01 a      1306     1     2     2     6
  6.1245518307733136E-02 a      1307     1     2     2     7
 -3.4760039898493139E-01 a      1308     1     2     2     8
 -3.5323154061823847E-01 a      1309     1     2     2     9
 -6.7144346454856615E-03 a      1310     1     2     2    10
  6.3587607909771970E-02 a      1311     1     2     2    11
 -3.0778169764065621E-02 a      1312     1     2     2    12
  5.8496990326507592E-01 a      1313     1     2     2    13
  2.4592876410011336E-01 a      1314     1     2     2    14
 -2.6590490828770996E-01 a      1315     1     2     2    15
 -2.3192129001597755E-01 a      1316     1     2     2    16
 -1.9693429178990704E-01 a      1317     1     2     2    17
 -9.1188590276894452E-02 a      1318     1     2     2    18
 -1.1458947831226377E-02 a      1319     1     2     2    19
 -2.7239713747371352E-01 a      1320     1     2     2    20
  8.3879229948064271E-01 a      1321     1     2     2    21
  2.2660937295428316E-01 a      1322     1     2     2    22
 -2.1375678959724578E-01 a      1323     1     2     2    23
  2.6550421226262660E-01 a      1324     1     2     2    24
 -6.0212290933738928E-02 a      1325     1     2     2    25
 -5.4509042298193519E-02 a      1326     1     3     2     1
 -2.2110527173624081E-01 a      1327     1     3     2     2
  2.2204850288155334E-01 a      1328     1     3     2     3
  4.0034746204759275E-02 a      1329     1     3     2     4
 -2.5619846202377095E-01 a      1330     1     3     2     5
  4.7186092668382557E-01 a      1331     1     3     2     6
  2.5145548038455687E-02 a      1332     1     3     2     7
 -5.1822281720328423E-01 a      1333     1     3     2     8
 -2.4792594843012836E-01 a      1334     1     3     2     9
 -5.6032006176896554E-01 a      1335     1     3     2    10
 -3.5681924267197421E-02 a      1336     1     3     2    11
 -1.1703464322735063E-01 a      1337     1     3     2    12
  1.1750251057491626E-01 a      1338     1     3     2    13
 -2.7331191339728417E-01 a      1339     1     3     2    14
 -4.9231056428475073E-01 a      1340     1     3     2    15
  2.2560483325001526E-01 a      1341     1     3     2    16
  6.8743228233975584E-01 a      1342     1     3     2    17
  4.1338892805060512E-01 a      1343     1     3     2    18
  3.8629207246687092E-01 a      1344     1     3     2    19
 -4.2517152109065054E-01 a      1345     1     3     2    20
 -1.8771172664469457E-01 a      1346     1     3     2    21
  1.8102663975863006E-01 a      1347     1     3     2    22
 -1.3158455574438610E-01 a      1348     1     3     2    23
 -2.3364199391613835E-01 a      1349     1     3     2    24
  5.0129735333376491E-01 a      1350     1     3     2    25
  5.4076530000436829E-02 a      1351     1     4     2     1
  2.9633753574123917E-02 a      1352     1     4     2     2
  5.7762864497840916E-01 a      1353     1     4     2     3
 -4.2293776633829411E-01 a      1354     1     4     2     4
 -4.8193995044601763E-02 a      1355     1     4     2     5
 -2.3176683794088748E-01 a      1356     1     4     2     6
  3.4177210235832900E-01 a      1357     1     4     2     7
 -3.6763697304918608E-01 a      1358     1     4     2     8
 -3.4436921791650188E-01 a      1359     1     4     2     9
 -4.3763591737443724E-01 a      1360     1     4     2    10
  2.7108476736515791E-01 a      1361     1     4     2    11
  3.9087467497440360E-02 a      1362     1     4     2    12
 -2.4767083310451654E-01 a      1363     1     4     2    13
 -4.2325196551710242E-01 a      1364     1     4     2    14
  3.6966982833798362E-01 a      1365     1     4     2    15
  2.8472676768591254E-01 a      1366     1     4     2    16
  7.9005935684088069E-01 a      1367     1     4     2    17
  7.6202253357101135E-01 a      1368     1     4     2    18
 -6.5886692080138060E-02 a      1369     1     4     2    19
 -1.2484133737945100E-01 a      1370     1     4     2    20
  4.7367232427775896E-01 a      1371     1     4     2    21
  2.0813430716986045E-01 a      1372     1     4     2    22
 -1.7885450075786227E-01 a      1373     1     4     2    23
 -5.0457506115234529E-02 a      1374     1     4     2    24
  1.2050781952304866E-01 a      1375     1     4     2    25
  3.2460078704561346E-01 a      1376     1     5     2     1
  9.7621338053356196E-02 a      1377     1     5     2     2
  3.9790353987502824E-01 a      1378     1     5     2     3
  2.0272349124824085E-01 a      1379     1     5     2     4
  6.8041213150563787E-02 a      1380     1     5     2     5
  1.7568056722979691E-01 a      1381     1     5     2     6
 -2.0433860657295927E-01 a      1382     1     5     2     7
  3.5639300735241647E-01 a      1383     1     5     2     8
 -4.5987898749257575E-03 a      1384     1     5     2     9
 -2.7421219789601498E-01 a      1385     1     5     2    10
 -3.7716178048362359E-01 a      1386     1     5     2    11
 -4.0343974182059684E-02 a      1387     1     5     2    12
 -1.2761954564649011E-01 a      1388     1     5     2    13
 -9.7029767284123561E-02 a      1389     1     5     2    14
  1.6005762452247718E-01 a      1390     1     5     2    15
  5.3961966230621572E-01 a      1391     1     5     2    16
  6.0041081669106662E-02 a      1392     1     5     2    17
  4.5980025855158974E-01 a      1393     1     5     2    18
  3.5790981365739979E-02 a      1394     1     5     2    19
  1.9747383868181569E-02 a      1395     1     5     2    20
  1.9674176659333228E-01 a      1396     1     5     2    21
  6.6303728994869771E-01 a      1397     1     5     2    22
 -2.9699057910062876E-01 a      1398     1     5     2    23
  4.4869860340774814E-01 a      1399     1     5     2    24
 -2.3420782823446501E-01 a      1400     1     5     2    25
  9.6136395915255454E-02 a      1401     1     6     2     1
 -5.6467493507190469E-01 a      1402     1     6     2     2
 -4.1994701019632202E-01 a      1403     1     6     2     3
  1.3392381260112973E-01 a      1404     1     6     2     4
  1.1685823853849551E+00 a      1405     1     6     2     5
  3.2402543547015306E-01 a      1406     1     6     2     6
 -4.9431527273610987E-01 a      1407     1     6     2     7
 -1.5340826605621095E-03 a      1408     1     6     2     8
  1.0019927961536337E+00 a      1409     1     6     2     9
  4.6991141074151477E-01 a      1410     1     6     2    10
 -3.3673268354076935E-01 a      1411     1     6     2    11
 -4.4011865425132835E-01 a      1412     1     6     2    12
  4.0566429572947404E-01 a      1413     1     6     2    13
  9.7585471918640987E-01 a      1414     1     6     2    14
 -4.3034007763942450E-01 a      1415     1     6     2    15
 -2.5612113374410173E-01 a      1416     1     6     2    16
 -1.6448860983925701E-01 a      1417     1     6     2    17
 -1.8920879970829143E-03 a      1418     1     6     2    18
  2.2180515898933349E-02 a      1419     1     6     2    19
 -3.4426814717754206E-01 a      1420     1     6     2    20
 -1.5069346044116291E-01 a      1421     1     6     2    21
 -1.9665721027430441E-01 a      1422     1     6     2    22
 -3.8433857871390797E-01 a      1423     1     6     2    23
 -3.9232697446835330E-01 a      1424     1     6     2    24
 -1.8420745279800213E-01 a      1425     1     6     2    25
 -2.8727432729546976E-01 a      1426     1     7     2     1
  2.7856242721218705E-01 a      1427     1     7     2     2
 -4.9203604762633318E-01 a      1428     1     7     2     3
 -5.7945938058939095E-01 a      1429     1     7     2     4
 -2.3758679850912101E-01 a      1430     1     7     2     5
 -1.5554262458122867E-01 a      1431     1     7     2     6
 -1.0479231389972098E-02 a      1432     1     7     2     7
  7.6415473173441739E-01 a      1433     1     7     2     8
  4.7356041684984185E-01 a      1434     1     7     2     9
 -9.1416088027727591E-02 a      1435     1     7     2    10
  1.2002067200809093E-01 a      1436     1     7     2    11
  1.7639122000219420E-01 a      1437     1     7     2    12
  2.8722627536831780E-01 a      1438     1     7     2    13
 -6.4555534231474798E-01 a      1439     1     7     2    14
  5.8548036223996403E-01 a      1440     1     7     2    15
  2.9946502597476765E-01 a      1441     1     7     2    16
  1.0011346386751245E-01 a      1442     1     7     2    17
  1.5682008806997433E-01 a      1443     1     7     2    18
 -1.3832446104677777E-02 a      1444     1     7     2    19
  1.8642781568086231E-02 a      1445     1     7     2    20
 -1.9031405298873186E-01 a      1446     1     7     2    21
  4.5810622377813198E-01 a      1447     1     7     2    22
  3.5671852558018380E-01 a      1448     1     7     2    23
 -3.7248465626830662E-01 a      1449     1     7     2    24
 -1.0720425302680613E-01 a      1450     1     7     2    25
 -5.5312069391361796E-01 a      1451     1     8     2     1
  2.4202466321122532E-01 a      1452     1     8     2     2
  3.9448339699063112E-02 a      1453     1     8     2     3
 -2.7987364031813244E-01 a      1454     1     8     2     4
 -2.7782836734847510E-01 a      1455     1     8     2     5
  2.7059050011580227E-01 a      1456     1     8     2     6
 -7.4133092260697597E-01 a      1457     1     8     2     7
 -9.0605725186220079E-02 a      1458     1     8     2     8
  1.8436494817762134E-01 a      1459     1     8     2     9
  1.5331799127683718E-01 a      1460     1     8     2    10
 -6.4297663807377989E-02 a      1461     1     8     2    11
  6.1408293726708162E-02 a      1462     1     8     2    12
  5.3342042793424416E-01 a      1463     1     8     2    13
  2.0794270233277365E-01 a      1464     1     8     2    14
 -5.0224040642634549E-01 a      1465     1     8     2    15
  1.1111040254645321E-01 a      1466     1     8     2    16
 -9.8573846701217147E-02 a      1467     1     8     2    17
  5.4292426778276915E-03 a      1468     1     8     2    18
 -2.1366567631876426E-02 a      1469     1     8     2    19
 -4.7581037171354512E-01 a      1470     1     8     2    20
  8.2326719162627168E-02 a      1471     1     8     2    21
 -2.6548547998479360E-01 a      1472     1     8     2    22
  3.8991600394214287E-01 a      1473     1     8     2    23
  4.5432432958948316E-01 a      1474     1     8     2    24
  5.6676730099845260E-03 a      1475     1     8     2    25
 -1.4555047720852168E-01 a      1476     1     9     2     1
  1.6450823646394153E-01 a      1477     1     9     2     2
 -1.0933801187733436E-01 a      1478     1     9     2     3
  8.3379366031431992E-02 a      1479     1     9     2     4
 -5.1537389405062195E-01 a      1480     1     9     2     5
 -2.0511160511819851E-01 a      1481     1     9     2     6
  4.8311273612889072E-01 a      1482     1     9     2     7
  2.9348242927487805E-01 a      1483     1     9     2     8
  2.0187823813815123E-01 a      1484     1     9     2     9
 -5.9643897994648687E-01 a      1485     1     9     2    10
 -3.8586706342681665E-01 a      1486     1     9     2    11
  1.2502241064458611E-01 a      1487     1     9     2    12
  3.2096076997366618E-01 a      1488     1     9     2    13
 -1.5455191187299667E-02 a      1489     1     9     2    14
 -9.4484008093919228E-02 a      1490     1     9     2    15
 -4.0347963886992649E-01 a      1491     1     9     2    16
  6.3558598312015691E-01 a      1492     1     9     2    17
 -4.0478890716302351E-01 a      1493     1     9     2    18
  1.9772557297786811E-01 a      1494     1     9     2    19
 -5.1067925665542013E-01 a      1495     1     9     2    20
 -4.7058930296245666E-01 a      1496     1     9     2    21
 -3.7911744357448834E-01 a      1497     1     9     2    22
  1.3857822006888018E-01 a      1498     1     9     2    23
  2.8747638185315921E-01 a      1499     1     9     2    24
 -7.3657259545438808E-02 a      1500     1     9     2    25
  4.0439439918076775E-02 a      1501     1    10     2     1
  3.9508611908098255E-02 a      1502     1    10     2     2
 -2.4083464491242715E-01 a      1503     1    10     2     3
  4.1049981527030821E-01 a      1504     1    10     2     4
  6.5530960156944995E-01 a      1505     1    10     2     5
  5.1375990623823353E-01 a      1506     1    10     2     6
 -4.7416198645798630E-01 a      1507     1    10     2     7
 -5.6023277179608387E-02 a      1508     1    10     2     8
 -2.0684914261698395E-01 a      1509     1    10     2     9
  2.2309414506657094E-01 a      1510     1    10     2    10
 -1.8825719937556892E-01 a      1511     1    10     2    11
  1.7051219425796244E-01 a      1512     1    10     2    12
  1.0692576191610964E-01 a      1513     1    10     2    13
 -5.2580366611966778E-01 a      1514     1    10     2    14
 -2.1813985751395881E-03 a      1515     1    10     2    15
 -4.6578894057112841E-01 a      1516     1    10     2    16
 -4.3343195971713006E-01 a      1517     1    10     2    17
 -1.6659267133183658E-01 a      1518     1    10     2    18
 -1.6500550721486326E-01 a      1519     1    10     2    19
 -1.9794238235222283E-01 a      1520     1    10     2    20
 -1.4178295298573670E-01 a      1521     1    10     2    21
  1.1012366952732981E-03 a      1522     1    10     2    22
  2.3038706427752975E-01 a      1523     1    10     2    23
  2.2057049420275573E-01 a      1524     1    10     2    24
  4.9974278473871864E-01 a      1525     1    10     2    25
 -2.9771726439703466E-01 a      1526     1    11     2     1
  1.0970036920260189E-01 a      1527     1    11     2     2
 -1.5955684192146125E-01 a      1528     1    11     2     3
 -5.4133085399617253E-01 a      1529     1    11     2     4
 -1.1271064857123521E+00 a      1530     1    11     2     5
  1.4966572230722565E-02 a      1531     1    11     2     6
 -3.1592047902568215E-01 a      1532     1    11     2     7
 -2.3617295573404284E-01 a      1533     1    11     2     8
  4.3010419975081371E-01 a      1534     1    11     2     9
  2.4416543107038077E-01 a      1535     1    11     2    10
 -1.8552200592260173E-01 a      1536     1    11     2    11
 -4.0692029081275793E-01 a      1537     1    11     2    12
  3.1726497159235439E-01 a      1538     1    11     2    13
 -2.2215343262675696E-01 a      1539     1    11     2    14
 -2.6840479606256495E-01 a      1540     1    11     2    15
  1.0804361404453665E-01 a      1541     1    11     2    16
 -2.5189975089636241E-01 a      1542     1    11     2    17
  9.8779182005655081E-02 a      1543     1    11     2    18
 -4.0293005773928137E-01 a      1544     1    11     2    19
  3.8424806876899958E-01 a      1545     1    11     2    20
 -2.0427587947131877E-02 a      1546     1    11     2    21
 -2.7114980652664383E-01 a      1547     1    11     2    22
 -2.2784523283470276E-01 a      1548     1    11     2    23
 -2.1998325431538365E-01 a      1549     1    11     2    24
 -8.3604747439919386E-02 a      1550     1    11     2    25
 -4.1753052145782350E-02 a      1551     1    12     2     1
  3.3493657245706276E-01 a      1552     1    12     2     2
  6.5893928114741415E-02 a      1553     1    12     2     3
 -2.2180670588634134E-02 a      1554     1    12     2     4
  3.0031018221002426E-01 a      1555     1    12     2     5
  4.3596372596128546E-01 a      1556     1    12     2     6
  3.5486545269254433E-01 a      1557     1    12     2     7
 -6.1510464670000722E-02 a      1558     1    12     2     8
 -2.2641468750492599E-01 a      1559     1    12     2     9
 -4.6406959828186262E-01 a      1560     1    12     2    10
  2.1143758560019263E-01 a      1561     1    12     2    11
  4.1020033381187437E-01 a      1562     1    12     2    12
 -3.1569612142821135E-01 a      1563     1    12     2    13
 -6.0701033021868234E-01 a      1564     1    12     2    14
  4.2560967605455396E-01 a      1565     1    12     2    15
  4.9552704144945614E-01 a      1566     1    12     2    16
 -4.0397577660906049E-02 a      1567     1    12     2    17
  3.1379642303456512E-01 a      1568     1    12     2    18
 -9.9428780122601076E-02 a      1569     1    12     2    19
  2.2785612990255760E-01 a      1570     1    12     2    20
 -1.4227237538850140E-01 a      1571     1    12     2    21
 -3.4652491037815297E-01 a      1572     1    12     2    22
 -2.8598939927355110E-01 a      1573     1    12     2    23
 -6.0546073397153921E-01 a      1574     1    12     2    24
 -4.4906570844470145E-01 a      1575     1    12     2    25
 -1.2521503481654976E-02 a      1576     1    13     2     1
 -7.5501422345941691E-02 a      1577     1    13     2     2
  2.6441557333366739E-01 a      1578     1    13     2     3
  2.9390538811473194E-01 a      1579     1    13     2     4
  5.4271810380493024E-01 a      1580     1    13     2     5
 -7.2911885121379605E-01 a      1581     1    13     2     6
 -7.9885601320083943E-01 a      1582     1    13     2     7
 -1.2324076700869893E-01 a      1583     1    13     2     8
  1.2694941648157565E-01 a      1584     1    13     2     9
  5.1825913679223304E-02 a      1585     1    13     2    10
 -2.4359774795894809E-01 a      1586     1    13     2    11
 -1.5748495209655836E-01 a      1587     1    13     2    12
  7.0250900253737189E-02 a      1588     1    13     2    13
 -4.5073293091315797E-01 a      1589     1    13     2    14
 -9.9818452805155422E-01 a      1590     1    13     2    15
  7.9326936959595168E-03 a      1591     1    13     2    16
 -3.2832218966973248E-01 a      1592     1    13     2    17
 -1.1861542965754000E-01 a      1593     1    13     2    18
 -5.9419245791749720E-01 a      1594     1    13     2    19
 -1.6382786282196533E-02 a      1595     1    13     2    20
  2.6874095417827026E-01 a      1596     1    13     2    21
 -3.7962389499600613E-01 a      1597     1    13     2    22
  7.9510392248472672E-01 a      1598     1    13     2    23
 -1.3027979267788428E-01 a      1599     1    13     2    24
 -4.6578976082218715E-01 a      1600     1    13     2    25
  4.2972451353694868E-01 a      1601     1    14     2     1
  2.8711898769155886E-01 a      1602     1    14     2     2
 -1.1014235743783590E-01 a      1603     1    14     2     3
 -8.6496707138408707E-02 a      1604     1    14     2     4
 -2.2255485979628328E-01 a      1605     1    14     2     5
 -2.7367677093713777E-01 a      1606     1    14     2     6
  5.1158615025137044E-01 a      1607     1    14     2     7
 -6.4831720622870648E-01 a      1608     1    14     2     8
  8.5068344785650188E-02 a      1609     1    14     2     9
  3.5994391367991779E-01 a      1610     1    14     2    10
 -2.2216411589612969E-01 a      1611     1    14     2    11
 -2.7945740037898037E-01 a      1612     1    14     2    12
  4.0491011735459148E-01 a      1613     1    14     2    13
 -6.4087979167039809E-03 a      1614     1    14     2    14
  4.4456900099436458E-01 a      1615     1    14     2    15
 -3.2548224065013381E-01 a      1616     1    14     2    16
 -2.3075422560211553E-01 a      1617     1    14     2    17
  1.3257120008668649E-01 a      1618     1    14     2    18
  2.0200582015256538E-01 a      1619     1    14     2    19
  1.5363335695045693E-01 a      1620     1    14     2    20
  3.8701570003820351E-03 a      1621     1    14     2    21
 -3.2157742444081400E-02 a      1622     1    14     2    22
  1.6637832384192527E-01 a      1623     1    14     2    23
  3.1056254380666465E-01 a      1624     1    14     2    24
  1.4286234005079604E-01 a      1625     1    14     2    25
 -1.0667425822230632E-01 a      1626     1    15     2     1
 -1.4847953926923388E-01 a      1627     1    15     2     2
 -3.7557011596231968E-02 a      1628     1    15     2     3
